{"config": {"vocab_size": 1546, "n_embd": 256, "n_head": 4, "n_layer": 4, "block_size": 128}, "weights": {"token_emb.weight": [[0.02633512392640114, -0.009828923270106316, -0.023519793525338173, -0.01536039263010025, 0.02623862586915493, -0.014863480813801289, -0.001510445843450725, 0.048586294054985046, 0.00422582495957613, -0.0035202722065150738, 0.020077556371688843, 0.012659741565585136, 0.01515208464115858, -0.02242802083492279, 0.005657046101987362, 0.0024661917705088854, -0.016840998083353043, 0.004657524637877941, 0.011850228533148766, -0.004612788092344999, -0.033088769763708115, 0.00310021685436368, -0.022571781650185585, 0.019831253215670586, -0.019176507368683815, -0.0276446882635355, -0.016458434984087944, -0.010704089887440205, 0.024020304903388023, -0.021867120638489723, 0.009908990003168583, 0.005574531853199005], [0.01351266447454691, -0.014328624121844769, -0.019332783296704292, -0.02567955292761326, 0.005871696397662163, -0.01690353825688362, 0.033390194177627563, -0.006509813480079174, -0.021529966965317726, 0.003844817169010639, 0.021823929622769356, 0.013459344394505024, 0.015436071902513504, 0.028420407325029373, 0.03912411630153656, -0.0012294159969314933, 0.014631330966949463, 0.02558060921728611, -0.016260646283626556, -9.732870239531621e-05, -0.01855471171438694, 0.02370939776301384, -0.004467904567718506, 0.024438075721263885, -0.0021303691901266575, 0.017136801034212112, 0.012707283720374107, -0.022934546694159508, 0.024527832865715027, -0.01573864556849003, -0.0070660300552845, -0.02565859444439411], [-0.010104826651513577, 0.021347133442759514, -0.021281637251377106, 0.00513423141092062, 0.016599299386143684, -0.03543061763048172, -0.0171719528734684, 0.021336957812309265, 0.0024800822138786316, 0.00407795887440443, -0.04316943883895874, 0.0022317299153655767, 0.041927505284547806, -0.03838399052619934, 0.022001106292009354, 0.017122672870755196, -0.023583104833960533, 0.014438052661716938, -0.01646984927356243, 0.011907042004168034, -0.01628871075809002, -0.003967061173170805, -0.010621788911521435, 0.003723409026861191, 0.0195110235363245, 0.016715142875909805, -0.007812761701643467, 0.02089001052081585, 0.0005599948926828802, 0.020691746845841408, -0.017109621316194534, 0.005257323384284973], [0.02627616375684738, -0.03328493982553482, -0.003858123905956745, -0.0032318714074790478, -0.008032400161027908, 0.01786152832210064, -0.004883268848061562, -0.015432138927280903, 6.822613067924976e-05, -0.027483351528644562, 0.022605078294873238, 0.010454109869897366, 0.03583655506372452, 0.005953878629952669, 0.035950951278209686, -0.004249828401952982, -0.03287622332572937, 0.02250594086945057, -0.010208607651293278, 0.007686392869800329, -0.021772753447294235, 0.005388922989368439, -0.020372217521071434, 0.008352585136890411, -0.014380252920091152, -0.008632972836494446, 0.011320322751998901, 0.014496181160211563, -0.0020594876259565353, -0.011536621488630772, 0.007342373486608267, -0.0225348062813282], [0.014799514785408974, -0.010343970730900764, 0.010781939141452312, -0.0009138230816461146, -0.018563825637102127, -0.0049171834252774715, 0.014391566626727581, 0.0057951053604483604, -0.018115628510713577, 0.004071326460689306, 0.03662208840250969, 0.010280313901603222, 0.00597416004166007, -0.013230575248599052, 0.021702567115426064, 0.036944013088941574, 0.03159704431891441, 0.027735024690628052, -0.00294428039342165, 0.006772472523152828, -0.02048703096807003, 0.03175113722681999, 0.023914489895105362, 0.0392935685813427, -0.009704114869236946, 0.021594449877738953, 0.0078123765997588634, -0.03951779380440712, 0.02717941254377365, -0.045528195798397064, 0.0027882352005690336, 0.019452156499028206], [-0.02968067303299904, 0.020083939656615257, -0.011004965752363205, -0.009645404294133186, -0.029968077316880226, 0.0009151023114100099, -0.00865283515304327, -0.022638801485300064, 0.007240373641252518, -0.0015517973806709051, 0.007485524285584688, 0.006525733042508364, -0.00913192518055439, 0.015700019896030426, 0.014084123075008392, 0.03380170091986656, -0.00920248031616211, -0.014912553131580353, 0.024596761912107468, 0.015955725684762, 0.00010221560660284013, -0.040702421218156815, 0.03948911651968956, 0.027405906468629837, 0.025317132472991943, 0.010572786442935467, -0.026854541152715683, -0.011201996356248856, 0.007614247500896454, -0.01248573325574398, -0.0014053992927074432, -0.022483831271529198], [0.016734721139073372, -0.020674530416727066, 0.008036397397518158, -0.04813436046242714, 0.004774993751198053, 0.0068807764910161495, 0.018282180652022362, 0.008215036243200302, -0.0013420325703918934, -0.021110376343131065, 0.03038235381245613, -0.007374635897576809, 0.013951277360320091, 0.024902410805225372, -0.0024860925041139126, 0.016026988625526428, -0.002692210953682661, 0.043946605175733566, -0.026823120191693306, -0.0005333831650204957, 0.012177236378192902, 0.032191500067710876, -0.006580978166311979, 0.027753708884119987, -0.003205491928383708, -0.017470404505729675, 0.01138126291334629, 0.02130175195634365, 0.0106945326551795, 0.00879085622727871, -0.013186854310333729, -0.03402705863118172], [0.006298334337770939, -0.04777679592370987, -0.010520377196371555, -0.012391825206577778, 0.01726945862174034, -0.020163623616099358, 0.03786817193031311, 0.009655648842453957, 0.013772532343864441, -0.030388835817575455, -0.0046691144816577435, -0.01655467599630356, 0.005765807814896107, 0.019595351070165634, 0.03687767684459686, 0.016073139384388924, 0.05335111543536186, 0.04267549514770508, 0.021462513133883476, -0.019200380891561508, 0.001785021391697228, 0.02824014611542225, 0.01004655659198761, 0.027820764109492302, 0.006008394528180361, 0.0012727921130135655, -0.02634507045149803, -0.016615508124232292, -0.014179515652358532, 0.005928634200245142, -0.009363992139697075, 0.02176954410970211], [0.008746828883886337, -0.03192227706313133, 0.019023846834897995, 0.023520123213529587, 0.003106475342065096, 0.00759616494178772, -0.011016950011253357, 0.02443413995206356, -0.006293622311204672, 0.0377398245036602, -0.026931092143058777, 0.0124469343572855, 0.011584559455513954, 0.009793157689273357, 0.003787559922784567, -0.01886507123708725, -0.011996331624686718, 0.022180993109941483, -0.026602251455187798, 0.023564349859952927, 0.02002830058336258, -0.0029834946617484093, 0.026268504559993744, 0.020252980291843414, -0.02228408306837082, 0.002537819091230631, -0.010790032334625721, 0.01279983390122652, -0.014428331516683102, 0.009172766469419003, 0.034949470311403275, 0.028952134773135185], [0.028484664857387543, 0.004124301951378584, -0.04035123810172081, 0.030572758987545967, 2.2046349840820767e-05, -0.011997991241514683, 0.018666040152311325, -0.04036352410912514, -0.005935929715633392, 0.004437983967363834, 0.01847274787724018, 0.01035333052277565, 0.006776444148272276, -0.010003242641687393, 0.028980158269405365, -0.0052633024752140045, -0.022228969261050224, 0.019295893609523773, -0.02468482032418251, -0.014191225171089172, 0.0068550994619727135, -0.004965449683368206, -0.0013275357196107507, -0.009157473221421242, -0.01712091453373432, -0.007073421496897936, -0.01016810443252325, 0.0020201723091304302, 0.010078991763293743, -0.005261506885290146, 0.01841355860233307, -0.005796880926936865], [0.006803908385336399, -0.018336134031414986, -0.015550457872450352, -0.0002648138615768403, 0.005315579008311033, 0.009209307841956615, -0.011228340677917004, 0.014371504075825214, 0.009427081793546677, 0.025134753435850143, 0.02574886940419674, -0.015273419208824635, 0.028042415156960487, -0.0046379766426980495, 0.025860734283924103, -0.033343393355607986, -0.010408314876258373, 0.003645719727501273, -0.02005070075392723, -0.021620169281959534, -0.0014503769343718886, -0.007699992042034864, -0.013264184817671776, -0.0028049719985574484, 0.006331045646220446, -0.018957214429974556, -0.007154377643018961, -0.00982881709933281, 0.004667035304009914, -0.018809640780091286, -0.0015308215515688062, -0.0188283771276474], [0.006457302253693342, -0.03742263838648796, 0.0246156957000494, -0.04489856958389282, 0.009347649291157722, 0.004607792943716049, 0.015069549903273582, 0.007707955315709114, 0.023633239790797234, -0.0005093899089843035, -0.000972193491179496, 0.0161787960678339, 0.0015204093651846051, -0.02179899998009205, 0.016556087881326675, -0.04252581670880318, -0.05476392060518265, 0.012797013856470585, -0.02470964379608631, -0.03547682613134384, 0.027384458109736443, -0.004270145203918219, -0.014464238658547401, 0.00867877621203661, -0.009371780790388584, 0.0028668257873505354, -0.0081989336758852, 0.003700295463204384, -0.011728200130164623, -0.028764085844159126, 0.003286337247118354, -0.0154142240062356], [0.017986442893743515, 0.00238594738766551, 0.008912832476198673, -0.017233092337846756, -0.008742826990783215, -0.02260487712919712, 0.02049863152205944, -0.008768265135586262, -0.0017955993534997106, 0.0050252280198037624, 0.05292327702045441, 0.0020366196986287832, 0.0036527873016893864, 0.005082886666059494, 0.009508241899311543, 0.009665858931839466, 0.02398144267499447, -0.02041633427143097, -0.02827138453722, -0.014191299676895142, 0.0032490685116499662, 0.013670321553945541, -0.013244190253317356, 0.019616609439253807, -0.0162743479013443, 0.027843113988637924, 0.022832516580820084, 0.0014085095608606935, 0.01770186424255371, 0.04115105792880058, 0.0011433734325692058, -0.015625815838575363], [0.015846770256757736, 0.016904165968298912, 0.040007926523685455, 0.021574048325419426, 0.013589605689048767, -0.02201743982732296, 0.026181872934103012, 0.018722498789429665, -0.04505976289510727, 0.010656610131263733, -0.0011774280574172735, 0.010260619223117828, -0.007795736659318209, -0.0001271060318686068, -0.007920864969491959, -0.004611888900399208, -0.017390890046954155, 0.02262161858379841, 0.031899791210889816, 0.014689339324831963, -0.02718055620789528, 0.04142041504383087, 0.025493325665593147, 0.010120722465217113, 0.012932399287819862, 0.008287999778985977, -0.004757096525281668, -0.009949363768100739, 0.009398795664310455, -0.04086010158061981, -0.018470387905836105, -0.016652923077344894], [0.019163817167282104, 0.018159981817007065, 0.0004775036359205842, -0.029065165668725967, 0.0042287264950573444, 0.004092775285243988, 0.031856290996074677, -0.003167863702401519, -0.010670910589396954, 0.00540507398545742, 0.014525615610182285, 0.026898343116044998, 0.027566660195589066, -0.005408674944192171, 0.026268035173416138, 0.03132180497050285, -0.009037989191710949, 0.045945990830659866, -0.025663258507847786, 0.011844931170344353, -0.011899122036993504, 0.009516851045191288, 0.008177309297025204, 0.03909595310688019, -0.007874272763729095, 0.006234392523765564, 0.0023603965528309345, -0.008996409364044666, -0.011107356287539005, 0.00018706331320572644, 0.00011146569158881903, -0.010815293528139591], [0.022885892540216446, 0.0004981895326636732, -0.03921378031373024, -0.028863459825515747, -0.002331864321604371, -0.006253289990127087, 0.03377533704042435, 0.0046421242877841, -0.013082821853458881, 0.002181836636736989, -0.006667175330221653, 0.007707035634666681, 0.02269596979022026, -0.0012918231077492237, 0.008766748011112213, -0.01844538375735283, -0.036264725029468536, 0.0017696708673611283, -0.019562702625989914, -0.037478119134902954, 0.0016313616652041674, -0.015371361747384071, -0.007533079478889704, -0.008001006208360195, 0.010360579006373882, -0.00121965236030519, -0.0017449914012104273, 0.008769696578383446, -0.00013583282998297364, -0.0011510237818583846, 0.015106136910617352, -0.01497580111026764], [-0.005214839708060026, 0.0038777226582169533, -0.029182318598031998, -0.003593141445890069, -0.005435554310679436, -0.010007939301431179, 0.03125487267971039, -0.011965728364884853, 0.002317599719390273, 0.02157219499349594, 0.02614710107445717, 0.007447760086506605, 0.0027305367402732372, -0.0026877725031226873, -0.012215709313750267, -0.00867759995162487, -0.007558820303529501, 0.024046380072832108, -0.018269600346684456, -0.038809094578027725, 0.019278427585959435, -0.015679217875003815, -0.016119349747896194, 0.007659615948796272, -0.02014950104057789, -0.022318106144666672, -0.02664121985435486, -0.012647985480725765, -0.019702119752764702, 0.007413486950099468, 0.0045569343492388725, -0.031913742423057556], [0.008183405734598637, -0.028646958991885185, -0.01439862884581089, -0.02212608978152275, 0.020096803084015846, 0.008470199070870876, 0.011725439690053463, 0.0068609826266765594, -0.00293468264862895, -0.007991193793714046, 0.06279201060533524, -0.011166064068675041, 0.008622578345239162, 0.004622511565685272, 0.012783421203494072, 0.00438446132466197, -0.01656482182443142, 0.0171761903911829, -0.002859709784388542, 0.005739250686019659, -0.002075908938422799, 0.02046927809715271, 0.010400533676147461, -0.009390419349074364, 0.006312821991741657, 0.013668416999280453, -0.00016639895329717547, 0.00636159535497427, 0.016623158007860184, -0.015241810120642185, -0.002871825359761715, 0.017629945650696754], [0.02282639406621456, -0.026753084734082222, -0.0185103602707386, -0.0004785646451637149, -0.01140645146369934, 0.018130475655198097, 0.008561236783862114, -0.03452492132782936, -0.026838626712560654, -0.013225715607404709, -0.004381297156214714, -0.0008633977267891169, 0.01820933260023594, -0.02511538751423359, 0.01982359029352665, -0.014020416885614395, -0.004446185193955898, -0.016426855698227882, -0.019774483516812325, -0.012263165786862373, -0.026045316830277443, 0.021434204652905464, 0.007337393704801798, -0.013143911026418209, -0.0021659154444932938, -0.01949096843600273, 0.0027142853941768408, 0.001799682853743434, -0.005294710863381624, -0.023567071184515953, -0.013849001377820969, 0.003741075284779072], [0.019821729511022568, -0.012230204418301582, -0.010642715729773045, -0.022413447499275208, 0.025000497698783875, -0.007863798178732395, 0.030283603817224503, -0.03152387589216232, 0.006028025411069393, -0.013705402612686157, 0.02923956699669361, 0.018718721345067024, -0.008611996658146381, 0.014214620925486088, 0.016479918733239174, -0.01690351963043213, -0.006048533599823713, 0.000504577299579978, -0.016245009377598763, -0.004074724856764078, 0.0053433687426149845, 0.025643933564424515, 0.0032287167850881815, -0.03493335098028183, 0.011409084312617779, -0.0006718331715092063, 0.004208762664347887, -0.019072072580456734, -0.0011291129048913717, -0.020843125879764557, -0.0011244731722399592, -0.004151908215135336], [-0.0031120164785534143, -0.006358802784234285, 0.03761220723390579, 0.009417684748768806, 0.012568403966724873, 0.01954907737672329, 0.013917073607444763, -0.020232636481523514, -0.0127987926825881, 0.0001026538957376033, 0.011274832300841808, 0.014265893027186394, 0.03759590536355972, 0.00928956363350153, -0.0023566987365484238, -0.01931612193584442, -0.03236498683691025, -0.007253649178892374, 0.00884271040558815, 0.01886395737528801, -0.009454739280045033, 0.002773456973955035, 0.026577355340123177, -0.010334961116313934, -0.017896059900522232, 0.0009897996205836535, 0.017643265426158905, -0.001517417374998331, -0.029170457273721695, -0.015582663007080555, 0.00858550425618887, 0.00021725543774664402], [0.04305850714445114, -0.010072347708046436, -0.03371162340044975, -0.014074488542973995, -0.04169744253158569, 0.02270294539630413, 0.01657686196267605, 0.017670219764113426, -0.007108945399522781, -0.030314624309539795, -0.0030706170946359634, -0.0057024769484996796, 0.01389327272772789, -0.025445519015192986, -0.011021682992577553, -0.01887640729546547, -0.05084969475865364, 0.05261761695146561, -0.019094161689281464, 0.012068652547895908, -0.008190152235329151, -0.002255497733131051, -0.00045518673141486943, -0.012704011052846909, -0.01049001794308424, -0.02341979555785656, 0.030291426926851273, -0.04996555298566818, -0.013640169985592365, 0.014144585467875004, 0.0017573146615177393, 0.00264521106146276], [0.0031470092944800854, 0.0022948149126023054, 0.010432131588459015, -0.01670491322875023, 0.008616236969828606, 0.01237949077039957, -0.016836389899253845, -0.027443770319223404, -0.012828659266233444, -0.012411612085998058, 0.0037796427495777607, 0.01362050510942936, 0.017328176647424698, -0.0055172024294734, 0.0006453423993662, 0.014189416542649269, -0.01769253984093666, 0.04590073600411415, -0.019072750583291054, -0.006235238164663315, 0.01958153210580349, 0.021256987005472183, 0.018162203952670097, 0.0033645688090473413, -0.005822525825351477, -0.009629325941205025, -0.0019578724168241024, 0.00759746041148901, -0.0036467520985752344, -0.010929074138402939, -0.00970610324293375, -0.016317443922162056], [0.013978964649140835, -0.013749872334301472, -0.03375658020377159, 0.005371751729398966, -0.004268322139978409, 0.019702132791280746, 0.006857382133603096, 0.013061593286693096, 0.007600541692227125, -0.025906015187501907, -0.014622288756072521, -0.03158304840326309, 0.014476449228823185, 0.008609256707131863, 0.03273649141192436, 0.009692015126347542, -0.06053643301129341, 0.026588231325149536, -0.04225732013583183, -0.006076121237128973, 0.012159647420048714, 0.012391380034387112, -0.028936894610524178, 0.026419423520565033, 0.0235525444149971, 0.00520357396453619, 0.010688327252864838, 0.015289824455976486, 2.5375402401550673e-05, 0.00841672532260418, -0.02932189591228962, -0.0011308112880215049], [0.002187491627410054, 0.017393026500940323, 0.02662649191915989, 0.02233026921749115, -0.012854478321969509, 0.03196422755718231, -0.006653937976807356, -0.012082475237548351, -0.014621328562498093, -0.005599366966634989, 0.005891071632504463, 0.012851069681346416, 0.03278527408838272, 0.02584558166563511, -0.010377823375165462, 0.006943392567336559, -0.0016870220424607396, 0.032206058502197266, -0.0001786267093848437, -0.00021232290600892156, -0.004647013731300831, 0.005999213550239801, -0.008583989925682545, 0.0032685769256204367, -0.014070931822061539, 0.009650333784520626, -0.01382393017411232, 0.01648975908756256, -0.009671173058450222, -0.005081791430711746, 0.0052895499393343925, -0.011299031786620617], [0.0012490933295339346, 0.001551687135361135, -0.03310956433415413, -0.0182180255651474, -0.0030150534585118294, 0.009282954037189484, -0.006213778629899025, -0.015992654487490654, 0.01790549047291279, -0.01378733478486538, 0.02522311359643936, 0.012513977475464344, 0.0302348081022501, 0.0005805706023238599, 0.05257745832204819, 0.0014804364182054996, -0.006876713130623102, -0.007098713889718056, 0.01382111944258213, 0.015310204587876797, 0.027251137420535088, -0.0297362320125103, 0.033331498503685, -0.01134374737739563, -0.0008360556676052511, -0.007994873449206352, 0.005219457671046257, -0.019115956500172615, 0.01068727858364582, 0.021711405366659164, -0.0010134003823623061, -0.02152387611567974], [0.026293352246284485, -0.008600560016930103, -0.005754777695983648, -0.008974329568445683, -0.0163715910166502, 0.014140048064291477, 0.0023618105333298445, -0.017394492402672768, -0.02847478911280632, 0.013417781330645084, -0.020922794938087463, -0.02706783264875412, -0.01811545342206955, -0.013019824400544167, 0.03557589277625084, -0.004095949232578278, -0.02943091280758381, -0.011283960193395615, -0.034806687384843826, 0.013075980357825756, -0.013890193775296211, -0.008915429003536701, 0.0034709300380200148, -0.021069278940558434, -0.031772732734680176, -0.02923101745545864, 0.022971486672759056, 0.033755574375391006, 0.015828993171453476, -0.025828983634710312, -0.03224697709083557, 0.01459105871617794], [0.0024663882795721292, -0.007782928645610809, -0.0038657512050122023, 0.020616281777620316, 0.041127048432826996, -0.017501601949334145, -0.00023866839183028787, 0.018130101263523102, -0.0021037771366536617, -0.0012688597198575735, 0.013607860542833805, -0.00343875028192997, 0.0058125779032707214, -0.03559967502951622, -0.005191031377762556, -0.0019063730724155903, -0.008136942982673645, 0.003774710465222597, 0.029797444120049477, 0.018700111657381058, -0.024692554026842117, -0.009062265045940876, 0.028239060193300247, 0.02473403885960579, -0.009859842248260975, -0.007242066785693169, 0.020116860046982765, -0.01453626062721014, 0.011943121440708637, -0.009793093428015709, -0.008169220760464668, 0.016534928232431412], [0.03773094341158867, 0.021375488489866257, -0.04772083833813667, -0.007855989970266819, 0.02211069129407406, 0.0015012151561677456, -0.021279655396938324, 0.002737859496846795, 0.03026118129491806, 0.037315789610147476, 0.024947797879576683, -0.020536139607429504, -0.014607621356844902, -0.015019150450825691, -0.009717905893921852, -0.02547508478164673, 0.0013841785257682204, 0.01734118163585663, 0.012941346503794193, -3.310510510345921e-05, -0.003811619710177183, -0.015918299555778503, -0.017499428242444992, -0.00540111493319273, -0.01544557511806488, -0.026363801211118698, 0.008419680409133434, -0.007683427073061466, 0.013496249914169312, -0.0077683390118181705, -0.028564684092998505, -0.005760316736996174], [-0.009115434251725674, -0.013071766123175621, -0.011300679296255112, -0.0036123718600720167, -0.021061589941382408, -8.81570958881639e-05, 0.019243918359279633, -0.002859861124306917, -0.012797556817531586, 0.025042036548256874, 0.040316805243492126, -0.00404472928494215, 0.05054589733481407, -0.001955244457349181, -0.012197382748126984, -0.018660442903637886, -0.008998875506222248, -0.013349863700568676, 0.015447934158146381, 0.034501463174819946, 0.038276225328445435, -0.040121499449014664, -0.0012321063550189137, 0.01625545509159565, -0.02032618410885334, -0.013894744217395782, -0.005196280777454376, -0.014291535131633282, 0.012702706269919872, 0.006888512056320906, 0.015771493315696716, 0.013654003851115704], [0.030202625319361687, 0.014207405969500542, -0.017887072637677193, -0.010074269957840443, 0.0011133746011182666, -0.010300999507308006, 0.002145033562555909, -0.008348138071596622, -0.04102036729454994, 0.018404042348265648, 0.03628867492079735, 0.01257412601262331, 0.016627423465251923, -0.03371046856045723, 0.026982726529240608, -0.006860524415969849, 0.01088041253387928, 0.010755667462944984, -0.03375332057476044, 0.0069206468760967255, 0.020679540932178497, 0.03383973240852356, 0.05289969965815544, -0.0068048471584916115, 0.006392424926161766, 0.005217176396399736, -0.00857049971818924, 0.004896929487586021, -0.0023079817183315754, -0.023376643657684326, 0.01680711843073368, -0.01436466071754694], [0.019584467634558678, 0.009927012957632542, -0.021713346242904663, 0.0089612677693367, 0.027597051113843918, 0.005907444283366203, -0.00512301130220294, 0.050915710628032684, 0.009366578422486782, 0.018189849331974983, 0.01881563290953636, -0.02536369487643242, 0.0020970324985682964, -0.015566320158541203, 0.01992523856461048, -0.02599104680120945, 0.008283413015305996, 0.01554641779512167, 0.004363851621747017, -0.02443968504667282, 0.019428718835115433, -0.01885724812746048, -0.020161710679531097, -0.0033449013717472553, 0.016900569200515747, -0.04099436476826668, 0.018489107489585876, -0.02125183865427971, 0.0172076765447855, -0.028841683641076088, -0.007116437423974276, -0.007334148045629263], [0.0003211836447007954, 0.027317868545651436, -0.03729774430394173, -0.006686163134872913, 0.024523502215743065, -0.009766592644155025, 0.007991142570972443, 0.009760907851159573, 0.03625389188528061, 0.02472642995417118, 0.0476301908493042, -0.0047572311013937, 0.0046523860655725, -0.02321264147758484, 0.015614548698067665, -0.0023650876246392727, 0.0074511002749204636, -0.01566160097718239, 0.015958504751324654, -0.017308199778199196, -0.048233240842819214, -0.01610286347568035, -0.032242581248283386, 0.027671365067362785, 0.021158698946237564, -0.02475671097636223, 0.011251198127865791, -0.01238729152828455, 0.04559580609202385, -0.020432446151971817, -0.003759122919291258, 0.003177415346726775], [-0.0210409052670002, -0.01611553318798542, -0.005945284850895405, -0.004121291451156139, -0.011370845139026642, -0.017644083127379417, -0.021940777078270912, 0.03484993800520897, -0.021935466676950455, 0.02749186009168625, 0.041906531900167465, -0.020407820120453835, 0.02596147730946541, -0.02213999070227146, -0.0009077467839233577, -0.0039077941328287125, -0.007870416156947613, -0.018051134422421455, 0.0076615456491708755, -0.0022422773763537407, 0.02224363386631012, 0.020222267135977745, -0.0020669761579483747, 0.003125161398202181, -0.013569284230470657, -0.010770090855658054, 0.0018859431147575378, 0.01804724708199501, -0.01621966063976288, -0.00572537025436759, 0.022679554298520088, 0.001672017970122397], [-0.014018402434885502, 0.005833545699715614, 0.0013055714080110192, -0.02341395616531372, -0.03967734053730965, 0.000592591823078692, 0.001298281829804182, -0.006097353063523769, 0.03241538256406784, 0.036014117300510406, 0.017916951328516006, 0.04808569699525833, 0.03238798677921295, -0.011482355184853077, 0.016858579590916634, -0.01180274598300457, -0.004890581592917442, -0.035854943096637726, -0.007141012232750654, -0.05103540048003197, -0.0058202859945595264, -0.009752372279763222, -0.03646279126405716, 0.008544247597455978, 0.019965142011642456, -0.01633056253194809, -0.03917005658149719, -0.049410540610551834, 0.016564201563596725, 0.023776458576321602, 0.0019804812036454678, 0.009136025793850422], [-0.0004895503516308963, 0.003239342011511326, 0.022715652361512184, -0.020836159586906433, -0.00697742123156786, 0.03501405566930771, 0.00829712301492691, -0.007151388097554445, 0.00046663705143146217, 0.05318184569478035, 0.012957791797816753, 0.03275220841169357, 0.009061443619430065, -0.007993500679731369, 0.015775486826896667, -0.003664058167487383, -0.009743918664753437, -0.010698284953832626, -0.007358126807957888, -0.0314057394862175, -0.0059885005466639996, -0.008401510305702686, -0.010464850813150406, 0.008303488604724407, 0.017886990681290627, -0.028793931007385254, -0.04544327035546303, -0.03909727931022644, 0.03270349279046059, -0.0014341165078803897, 0.031667690724134445, 0.030369218438863754], [0.004164949990808964, -0.00034834397956728935, -0.02668418362736702, -0.01705722138285637, -0.007285271771252155, 0.016671663150191307, -0.025705350562930107, -0.010431423783302307, 0.016137853264808655, -0.011548398062586784, -0.0073811085894703865, -0.01637975312769413, -0.0017593688098713756, -0.021600496023893356, 0.016775749623775482, -0.0069320411421358585, -0.0022755214013159275, 0.012285777367651463, -0.0002834269544109702, -0.013369538821280003, -0.013971847482025623, -0.01935597136616707, 0.01046055182814598, -0.006255920976400375, 0.006941713858395815, 0.03651989623904228, 0.004904214292764664, 0.006097809877246618, -0.006852838210761547, 0.02661486156284809, 0.024669360369443893, -0.018386416137218475], [0.015300791710615158, -0.0025316395331174135, 0.004907508380711079, 0.029828693717718124, -0.02917933650314808, -0.0032583826687186956, 0.0019508666591718793, -0.008110815659165382, 0.007665982469916344, -0.01638062857091427, 0.026635749265551567, -0.014994174242019653, -0.009509910829365253, -0.015129229053854942, -0.023487793281674385, 0.018577417358756065, 0.006376547273248434, -0.022636160254478455, 0.012064771726727486, 0.026353921741247177, -0.00573532423004508, 0.016136005520820618, -0.04084431752562523, -0.01683485507965088, 0.005136379040777683, 0.029665838927030563, 0.007663978263735771, 0.05274297669529915, -0.02208491414785385, -0.006729852873831987, 0.005689035635441542, 0.014815032482147217], [0.005129960365593433, 0.003922735806554556, -0.004502987023442984, -0.015099132433533669, -0.021047137677669525, -0.01743253692984581, 0.01167113147675991, -0.019887948408722878, 0.013328736647963524, 0.01680133305490017, -0.0233085285872221, 0.032728392630815506, 0.010153714567422867, 0.0166747085750103, 0.02178478054702282, 0.01631878688931465, -0.010293553583323956, -0.0008680024766363204, 0.01668093539774418, 0.0016035486478358507, -0.010469943284988403, -0.013472795486450195, -0.015737175941467285, 0.04052970930933952, 0.013896697200834751, -0.011758794076740742, 0.010061274282634258, -0.02151540108025074, 0.017624713480472565, 0.01127407606691122, -0.015986323356628418, 0.003489371854811907], [0.01671656034886837, 0.031355272978544235, -0.0010872464627027512, -0.02305467054247856, 0.014853183180093765, -0.015820849686861038, 0.006770542357116938, -0.015967300161719322, 0.012339471839368343, 0.03089420311152935, -0.0022118925116956234, 0.006081342231482267, 0.002855387283489108, -0.010624459944665432, 0.0033601706381887197, 0.016485894098877907, 0.009648616425693035, -0.014213533140718937, 0.004362327978014946, -0.035809293389320374, -0.024093061685562134, -0.002315383404493332, -0.011379525996744633, -0.013740611262619495, -0.0027891749050468206, -0.006251581944525242, -0.011462894268333912, -0.0006203320808708668, 0.02491094544529915, 0.030181869864463806, 0.012593945488333702, -0.018755285069346428], [0.015467097982764244, 0.009044990874826908, -0.03799401968717575, -0.01096273586153984, -0.020214084535837173, -0.01133466325700283, 0.015224326401948929, 0.005922742187976837, -0.01606800965964794, -0.0025032744742929935, 0.020993541926145554, -0.007109453435987234, -0.03525755554437637, -0.03200138732790947, 0.0031038715969771147, -0.02490001916885376, 0.02202266827225685, -0.023721443489193916, -0.0206126905977726, 0.06517668813467026, 0.009360911324620247, -0.008592118509113789, 0.01507255993783474, 0.003851032117381692, -0.00513498717918992, 0.0246281698346138, 0.0055870963260531425, -0.01551333349198103, 0.04450680688023567, 0.046561919152736664, 0.0005830705049447715, 0.03197016939520836], [0.015888988971710205, 0.00501841027289629, -0.03425438329577446, -0.017767250537872314, -0.03182666376233101, -0.014006214216351509, 0.02644597738981247, 0.03923998773097992, 0.026607705280184746, 0.014941117726266384, 0.005405956879258156, -0.015041899867355824, 0.00460199685767293, -0.02453630045056343, -0.014125925488770008, 0.017108462750911713, 0.032090749591588974, 0.01179640181362629, -0.008297535590827465, 0.01478791143745184, -0.026347825303673744, -0.002239953726530075, -0.03959771618247032, -0.04173630103468895, -0.019131677225232124, 0.0004953604657202959, -0.0093388045206666, -0.01969817467033863, -0.02114170230925083, 0.018998967483639717, 0.01158399973064661, 0.018340453505516052], [0.017598431557416916, -0.012368487194180489, -0.01695956103503704, -0.02962496131658554, -0.0105335908010602, 0.012571108527481556, 0.0110552366822958, 0.02318028174340725, -0.0070227100513875484, 0.0035722972825169563, 0.01830311119556427, -0.0218153465539217, 0.006078625097870827, -0.03301527351140976, -0.003971160855144262, 0.002711143810302019, -0.0007755441474728286, 0.016452010720968246, 0.002929035807028413, 0.005639174021780491, -0.007208617404103279, 0.011941421777009964, -0.04071836918592453, 0.013800558634102345, 0.005127756390720606, -0.01970001496374607, -0.05388984456658363, -0.017464974895119667, -0.026901597157120705, -0.006738581229001284, 0.003126015653833747, -0.028209935873746872], [-0.036656707525253296, -0.015407395549118519, -0.0053174239583313465, -0.009321413934230804, -0.023522529751062393, -0.012936966493725777, 0.013954902067780495, 0.002904253313317895, 0.021748099476099014, 0.02101925015449524, -0.02475450374186039, 0.02133580483496189, 0.017965547740459442, 0.03352963179349899, 0.02686585858464241, 0.025319766253232956, 0.03206793591380119, 0.017620380967855453, -0.01068058330565691, 0.014124465174973011, 0.014027968049049377, -0.0047032516449689865, 0.007725832983851433, 0.04273415729403496, 0.005189154762774706, 0.0005202476168051362, 0.013956911861896515, 0.02692747488617897, -0.021847940981388092, 0.0152770159766078, 0.02510768175125122, 0.01711020991206169], [0.009623538702726364, -0.0033126138150691986, 0.016595428809523582, -0.008881151676177979, -0.012398989871144295, -0.01642349362373352, 0.07032226026058197, 0.019453613087534904, 0.04190072417259216, 0.01786867529153824, 0.010691548697650433, 0.008348710834980011, -0.02354811318218708, 0.015208347700536251, 0.014397717081010342, -0.007948680780827999, -0.007067431230098009, -0.038609933108091354, -0.025098664686083794, -0.028549976646900177, 0.0028356858529150486, -0.026234043762087822, -0.003060980699956417, -0.008182314224541187, 0.034930210560560226, 0.0222330279648304, 0.004466013051569462, 0.024759430438280106, -0.0012533569242805243, -0.003919416107237339, 0.02743290737271309, -0.0391886942088604], [-0.010186673142015934, -0.00012391514610499144, 0.0023783305659890175, -0.021413838490843773, 0.005271328147500753, 0.0003090703976340592, -0.0035146852023899555, -0.01039331965148449, 0.00464662304148078, -0.010773073881864548, -0.028272323310375214, -0.03650837764143944, 0.010069353505969048, -0.014251567423343658, 0.008325344882905483, -0.018487656489014626, 0.010167435742914677, -0.02803392894566059, -0.03120248019695282, 0.004575102590024471, 0.03490689396858215, 0.00960527267307043, -0.0427740104496479, -0.03006226196885109, -0.01809719391167164, -0.018558552488684654, 0.019595948979258537, 0.019357657060027122, -0.01744060218334198, -0.020654236897826195, 0.012440940365195274, -0.0247638002038002], [-0.005650596227496862, -0.02771030366420746, -0.038926392793655396, 0.032318148761987686, 0.010784541256725788, -0.011190235614776611, -0.019990159198641777, 0.014100661501288414, 0.0012394835939630866, 0.009602471254765987, -0.01512361504137516, 0.010654609650373459, 0.019400794059038162, 0.015366748906672001, 0.006114288233220577, 0.011624973267316818, -0.004867319483309984, 0.029582807794213295, -0.050343841314315796, 0.03227202594280243, -0.004329885356128216, 0.007695116102695465, 0.002052052179351449, -0.0023746707011014223, 0.0006170155247673392, 0.00441165454685688, -0.034426990896463394, 0.007889938540756702, -0.030414557084441185, 0.023336321115493774, -0.006500761955976486, -0.005228054244071245], [0.022199872881174088, 0.019063889980316162, -0.011237168684601784, -0.040202099829912186, 0.03066878207027912, 0.006766806356608868, 0.04056055471301079, 0.03923875465989113, 0.0315556600689888, -0.001328623155131936, 0.03817911073565483, 0.0022797801066190004, 0.005726734641939402, 0.030026951804757118, 0.013444454409182072, 0.004472382366657257, -0.011474942788481712, -0.0013822495238855481, -0.002437260700389743, 0.020055662840604782, -0.04118914529681206, 0.0033226688392460346, 0.03072025626897812, 0.008434931747615337, -0.01620492897927761, -0.014012277126312256, -0.008057077415287495, 0.001725567621178925, 0.02556701749563217, -0.01901037059724331, 0.00925761740654707, -0.0015400813426822424], [0.030101237818598747, -0.015644898638129234, 0.04881175234913826, -0.012244341894984245, -0.005504518747329712, 0.009943172335624695, -0.020704360678792, 0.009440912865102291, 0.0035103491973131895, -0.019060082733631134, -0.01086114440113306, 0.017665518447756767, -0.017514945939183235, 0.0019734096713364124, 0.02006378024816513, -0.013830375857651234, -0.0019087818218395114, -0.007162605412304401, -0.008047347888350487, -0.019737577065825462, -0.03228491172194481, 0.03595087304711342, 0.012662149965763092, 0.026151105761528015, 0.024120371788740158, -0.013847673311829567, -0.004284856840968132, 0.03815937042236328, -0.040078941732645035, -0.014711528085172176, 0.022931354120373726, 0.029408924281597137], [-0.01142876222729683, 0.03551345691084862, 0.000863071356434375, -0.0178520604968071, 0.0014171140501275659, 0.01588616706430912, 0.020179657265543938, -0.026304053142666817, 0.012998560443520546, 0.0006590278935618699, -0.022199850529432297, 0.03940719738602638, 0.029024522751569748, -0.003070971928536892, 0.03427087515592575, 0.00664496049284935, 0.02512480318546295, 0.021854978054761887, -0.013421502895653248, -0.007532577030360699, 0.000485931959701702, 0.024187074974179268, -0.001044873264618218, -0.014559312723577023, -0.021656356751918793, -0.0009368503815494478, -0.03684799745678902, 0.006558981258422136, 0.014951048418879509, 0.003113220212981105, 0.009377771988511086, -0.014299893751740456], [-0.0042441412806510925, 0.006861304864287376, 0.004685427062213421, -0.0020871784072369337, -0.029102565720677376, 0.003131741425022483, 0.027376627549529076, 0.02533094957470894, -0.016422756016254425, -0.014286407269537449, 0.029764169827103615, -0.00817936658859253, -0.0057900515384972095, -0.0011274066055193543, -0.01300812978297472, 0.015714289620518684, -0.022827690467238426, -0.018188098445534706, 0.020413681864738464, 0.014664833433926105, 0.02082066424190998, 0.04860726743936539, 0.03773796185851097, -0.015813693404197693, 0.06043458729982376, -0.006067079026252031, -0.02455778792500496, 0.025399424135684967, -0.02259105071425438, 0.02649851143360138, 0.028733981773257256, 0.05432590842247009], [0.004339779261499643, -0.0007722480222582817, -0.0576544925570488, -0.008032838813960552, 0.0046892110258340836, 0.00800499226897955, -0.020307712256908417, -0.018344096839427948, -0.016064032912254333, 0.019742976874113083, -0.011576250195503235, 0.006437681149691343, -0.030606435611844063, -0.0025371413212269545, 0.020323563367128372, 0.013188057579100132, -0.029607873409986496, 0.027268676087260246, 0.00020104905706830323, -0.00411564065143466, -0.008648867718875408, -0.005768510513007641, -0.011335918679833412, 0.006144448183476925, 0.0123117845505476, -0.02906980738043785, 0.01942172460258007, -0.017313813790678978, 0.015322351828217506, 0.005400436464697123, -0.007707752753049135, -0.012939011678099632], [0.02194502204656601, -0.024147827178239822, -0.0027915232349187136, -0.005261963699012995, 0.007270293775945902, 0.00844897236675024, -0.00164412846788764, 0.03040347807109356, 0.030879031866788864, 0.018377885222434998, -0.00019919269834645092, -0.020307140424847603, 0.006747634615749121, 0.012915140949189663, 0.0043020774610340595, 0.05351834371685982, 0.013794658705592155, -0.0012468092609196901, -0.029299290850758553, -0.0006935560959391296, 0.01167580857872963, -0.01207518670707941, 0.011116227135062218, -0.011908089742064476, 0.009787032380700111, 0.01611054688692093, -0.009803349152207375, -0.019724803045392036, 0.007078011520206928, 0.01275843195617199, 0.0310088898986578, -0.008969511836767197], [0.02274603769183159, -0.010354547761380672, -0.010923623107373714, 0.005882184952497482, 0.0032224080059677362, -0.03063434734940529, 0.046602096408605576, -0.0022115102037787437, 0.018484218046069145, -0.006753649562597275, -0.008775054477155209, 0.02674153633415699, 0.031114105135202408, -0.007538193371146917, 0.0016748837660998106, 0.002507613506168127, 0.009672587737441063, 0.0023462267126888037, -0.0024343461263924837, -0.028431395068764687, 0.010755196213722229, 0.014783062972128391, 0.0256159957498312, -0.007834258489310741, -0.027209075167775154, -0.03069423884153366, 0.011260724626481533, -0.01109455805271864, -0.01485602930188179, -0.007060856092721224, 0.015691183507442474, -0.049349863082170486], [-0.022985897958278656, -0.0025145967956632376, 0.024990927428007126, 0.02783084101974964, 0.01511992234736681, 0.03129877895116806, 0.00712471641600132, -0.005038933362811804, 0.015229694545269012, -0.012408853508532047, -0.0032443050295114517, 0.004401884973049164, -0.004307637456804514, 0.005443035624921322, 0.015588939189910889, 0.04462170600891113, 0.0102314418181777, 0.02792229875922203, 0.009864243678748608, 0.01354984100908041, 0.00044226041063666344, -0.003672530874609947, 0.005680282600224018, -0.036013633012771606, 0.02746449038386345, -0.00070892897201702, 0.013494065031409264, 0.01490859780460596, 0.020780498161911964, 0.00019197049550712109, 0.03593350201845169, 0.0158768892288208], [0.013340526260435581, -0.03793943673372269, -0.06469326466321945, 0.028486352413892746, 0.03118652105331421, -0.020709160715341568, 0.013679379597306252, 0.0013489837292581797, -0.009600567631423473, 0.010117202997207642, 0.03822346031665802, -0.013736273162066936, -0.002366176340728998, 0.004484844859689474, 0.017583224922418594, -0.03056076169013977, 0.009402570314705372, 0.013383867219090462, 0.02802378498017788, 0.012728987261652946, 0.010552790947258472, 0.02291988767683506, 0.01720472425222397, 0.04319671168923378, -0.001834313035942614, 0.027039507403969765, 0.02236959896981716, 0.006156440824270248, 0.03731146454811096, -0.015551592223346233, 0.03919225558638573, -0.00236125267110765], [0.008796277455985546, -0.015209318138659, -0.042953092604875565, -0.022587215527892113, 0.016586901620030403, -0.010765016078948975, 0.007228545844554901, 0.003504242515191436, -0.01720515638589859, 0.017534159123897552, 0.03840595483779907, -0.019563576206564903, -0.007058096118271351, -0.02015133574604988, -0.029186731204390526, -0.0034485526848584414, -0.005272910930216312, -0.0047827656380832195, -0.00602610083296895, -0.007056776434183121, -0.018441086634993553, -0.039705488830804825, -0.0015025371685624123, -0.0027224307414144278, -0.04662233963608742, -0.03717503324151039, -0.026486270129680634, 0.006529761012643576, -0.04580346867442131, -0.013341683894395828, -0.01751682348549366, -0.016052046790719032], [0.0036941261496394873, 0.021922629326581955, -0.044759351760149, 0.004560109693557024, -0.041638992726802826, -0.009120858274400234, 0.02906300127506256, 0.008009659126400948, -0.049072977155447006, 0.006007158663123846, 0.022415073588490486, -0.008705411106348038, 0.02297964319586754, 0.009522723034024239, 0.0006257098284550011, 0.018711265176534653, -0.012711524963378906, 0.03888412564992905, -0.024738634005188942, -0.009996638633310795, -0.016293592751026154, 0.048388414084911346, -0.013453392311930656, -0.01015052106231451, -0.0016208209563046694, -0.0002329116832697764, 0.036952897906303406, -0.006718202959746122, 0.03224444016814232, -0.014029441401362419, 0.02725454606115818, 0.004962454549968243], [0.00022138965141493827, -0.026905059814453125, -0.027586836367845535, -0.011250551789999008, -0.019798878580331802, -0.023869574069976807, 0.009946574456989765, -0.0048127686604857445, 0.002941695274785161, 0.007443628273904324, 0.02794133685529232, 0.005296435672789812, 0.016761604696512222, 0.016021670773625374, 0.02716764062643051, -0.0056701889261603355, 0.0022787353955209255, 0.021661870181560516, -0.007259412202984095, 0.004176288843154907, 0.003047230187803507, 0.001703577465377748, 0.016783928498625755, -0.02127785235643387, 0.0072310734540224075, -0.01104693952947855, 0.018244324252009392, -0.003926220815628767, 0.024493031203746796, -0.0008451771573163569, -0.010031022131443024, 0.0028525888919830322], [0.027332575991749763, 0.010928850620985031, -0.01533031277358532, -0.010030177421867847, 0.019229834899306297, 0.015104481019079685, 0.0010425470536574721, 0.009153394028544426, 0.04196181148290634, 0.016745317727327347, 0.03222179412841797, -0.024728642776608467, 0.012621060945093632, 0.007368908263742924, -0.0021593724377453327, 0.0038911618757992983, -0.00796593725681305, -0.014494890347123146, 0.013603280298411846, 0.02154633030295372, -0.01715371198952198, 0.0003695423365570605, -0.014025931246578693, -0.002995650051161647, -0.011646408587694168, -0.020053653046488762, -0.005692809354513884, -0.008757163770496845, 0.02656412124633789, -0.01990480162203312, 0.004943715874105692, 0.005081448704004288], [-0.002728109946474433, 0.0008218755829147995, 0.057307079434394836, -0.032039254903793335, -0.01734461449086666, -0.01849215291440487, 0.04754289239645004, -0.01890324242413044, 0.017649156972765923, 0.010146952234208584, -0.006831552367657423, -0.01651819795370102, -0.018601069226861, -0.03985343128442764, 0.019782468676567078, -0.032375916838645935, -0.031062981113791466, -0.008118575438857079, 0.0005948481266386807, -0.028414251282811165, 0.008449425920844078, 0.009400920942425728, 0.006518917623907328, -0.01100880466401577, -0.03501318395137787, 0.007026125676929951, 0.0025858012959361076, -0.01947198435664177, 0.023569200187921524, 0.007115084677934647, 0.04732394218444824, -0.003775458550080657], [0.027939453721046448, 0.007482069544494152, -0.0011417597997933626, 0.010708296671509743, -0.009670901112258434, 0.0006170586566440761, 0.002184655051678419, -2.4115654014167376e-05, -0.004108055029064417, 0.014574862085282803, 0.02201971970498562, 0.010284767486155033, -0.001999549800530076, -0.00016667164163663983, 0.026675399392843246, -0.0017845762195065618, 0.0014043677365407348, 0.011066650040447712, -0.005341829266399145, -0.010540512390434742, 0.005365821532905102, -0.009452106431126595, 0.0033014551736414433, 0.04340701177716255, -0.003456148086115718, 0.015626998618245125, 0.017359796911478043, 0.01574474573135376, 0.015595655888319016, 0.009281539358198643, 0.019315823912620544, 0.005445638205856085], [0.017021644860506058, -0.015830615535378456, -0.0331185907125473, -0.012158346362411976, 0.0023787738755345345, 0.011133983731269836, 0.021770263090729713, -0.024201955646276474, 0.004835859406739473, 0.007539846934378147, 0.00944827776402235, 0.0019220763351768255, 0.01298701111227274, 0.00979030504822731, 0.010487983003258705, 0.019453927874565125, -0.0008023243281058967, 0.01729697547852993, -0.016663620248436928, -0.010991417802870274, -0.008591854013502598, 0.004938781727105379, -0.005785925779491663, 0.023623326793313026, 0.011855960823595524, -0.03340429812669754, 0.007124896626919508, -0.02624327689409256, 0.0008747861138544977, 0.005143927410244942, 0.0011638194555416703, -0.00379928364418447], [0.003001557197421789, 0.011807864531874657, -0.01166450697928667, -0.010249977000057697, 0.0077179609797894955, -0.0043313950300216675, -0.004193134140223265, -0.0026315907016396523, 0.009307135827839375, 0.016738329082727432, -0.0038264577742666006, 0.01719844341278076, -0.0020857625640928745, 0.00907173752784729, 0.011072463355958462, 0.04098830372095108, 0.0010304015595465899, 0.01600852608680725, -0.0014755548909306526, 0.004142149817198515, -0.023726917803287506, -0.013083372265100479, -0.021233011037111282, -0.004841426853090525, -0.023856131359934807, 0.020914388820528984, -0.011640318669378757, -0.0155333885923028, -0.015655308961868286, 0.009016026742756367, 0.0316694900393486, -0.017468495294451714], [0.032647568732500076, -0.012743745930492878, -0.029902400448918343, -0.007680804003030062, 0.003077769186347723, 0.011122495867311954, 0.026168815791606903, -0.012053941376507282, 0.025613371282815933, -0.0065247961319983006, -0.024279149249196053, 0.014197899959981441, 0.02436673268675804, -0.013700335286557674, 0.0071557206101715565, 0.021130872890353203, -0.02173905074596405, 0.03071906790137291, -0.0200763251632452, 0.013384363614022732, 0.015060587786138058, 0.015659905970096588, -0.02456887811422348, -0.021449757739901543, 0.008725409395992756, 0.007162881549447775, 0.020618226379156113, -0.026623915880918503, 0.02170412987470627, 0.018953116610646248, 0.018978577107191086, 0.009785446338355541], [0.015050527639687061, 0.005234494339674711, -0.03991340473294258, -0.015802599489688873, -0.01986444927752018, 0.011116746813058853, 0.030072195455431938, -0.011793231591582298, 0.011442506685853004, 0.03328009322285652, 0.020916245877742767, -0.006234489381313324, -0.02198975160717964, -0.010744849219918251, 0.01613060012459755, 0.004957492928951979, 0.015468667261302471, 0.0348181277513504, -0.004031783901154995, -0.0024843327701091766, -0.01741098053753376, -0.010260910727083683, -0.02179829590022564, -0.01093323901295662, -0.00797130074352026, 0.01583983190357685, 0.006290288642048836, -0.007208836730569601, -0.0026345937512815, 0.0032220492139458656, 0.02392684295773506, -0.025843119248747826], [0.01984263025224209, -0.026769034564495087, -0.007781415246427059, -0.007032300811260939, -0.008958881720900536, 0.00500158267095685, 0.007739038672298193, -0.0013255574740469456, 0.007961111143231392, 0.02758885733783245, 0.021634994074702263, 0.0019459013128653169, 0.03160013630986214, 0.0007895868620835245, 0.0031955891754478216, 0.01869814470410347, -0.02139812335371971, -0.008870348334312439, -0.020473212003707886, -0.024348491802811623, -0.0038977391086518764, 0.014872031286358833, -0.008850911632180214, 0.026166871190071106, -0.0017207120545208454, -0.014921075664460659, -0.0059189083985984325, -0.019514363259077072, -0.0014711348339915276, -2.8379668947309256e-05, 0.00806597713381052, -0.01619187369942665], [0.012654900550842285, -0.018651118502020836, -0.03129443898797035, -0.006965914741158485, 0.007113228086382151, 0.000903099833521992, 0.02270444668829441, -0.011515151709318161, -0.010354435071349144, -0.0019771310035139322, 0.012477172538638115, -0.00019924559455830604, 0.009113036096096039, 0.004836202133446932, 0.008448701351881027, 0.014197265729308128, 0.0009258349309675395, 0.02195892110466957, -0.03180606663227081, -0.014483501203358173, -0.002211487852036953, 0.012170826084911823, -0.0021168130915611982, -0.011844804510474205, -0.008269310928881168, 0.008696788921952248, -0.006235815118998289, -0.01773865893483162, 0.01003944966942072, -0.0034403151366859674, -0.004196463618427515, -0.0296414066106081], [0.019049150869250298, -0.0269877091050148, -0.003957604989409447, 0.0021361347753554583, -0.024656426161527634, -0.012993527576327324, 0.01585264503955841, -0.011353603564202785, 0.02052192948758602, 0.0011608593631535769, 0.009649994783103466, -0.0007652468048036098, 0.008601847104728222, -0.020371679216623306, 0.015421745367348194, -0.006625218782573938, 0.008927500806748867, -0.00311921164393425, -0.018495870754122734, -0.001475613098591566, -0.016395481303334236, -0.0031837420538067818, -0.03356678783893585, -0.010959768667817116, -0.01331893727183342, -0.007985347881913185, 0.023772122338414192, -0.013592579402029514, -0.012603415176272392, -0.002639791928231716, 0.020501025021076202, -0.008322400972247124], [0.006586659699678421, -0.012669883668422699, -0.04071155562996864, -0.018518157303333282, -0.026614828035235405, 0.001963035436347127, 0.007599902804940939, -0.009971890598535538, 0.016032518818974495, 0.007718087173998356, 0.008386863395571709, 0.017729133367538452, -0.0040877689607441425, 0.0004864163638558239, 0.010771546512842178, 0.005817624740302563, 0.001175261684693396, 0.0052082594484090805, 0.002992365276440978, 0.008010891266167164, -0.026945825666189194, -0.00446133641526103, -0.014234611764550209, -0.005398428067564964, -0.012981888838112354, 0.029610751196742058, 0.02372787892818451, 0.002336004516109824, 0.007048177067190409, 0.0015257885679602623, 0.012900014407932758, -0.02829604409635067], [0.02920197695493698, -0.007082696538418531, -0.022092731669545174, -0.0021639931946992874, -0.011253489181399345, 0.01822129637002945, 0.004628339316695929, -0.003909076564013958, -0.02645907923579216, 0.014783225022256374, -0.001564046018756926, -0.0022574954200536013, 0.014659908600151539, -0.01958349160850048, -0.0001419457112206146, 0.0005099617410451174, -0.016461100429296494, 0.009900860488414764, -0.0071530453860759735, -0.0185527540743351, 0.008087461814284325, 0.014341700822114944, -0.013391442596912384, 0.029910987243056297, -0.0007838438614271581, -0.019070887938141823, -0.007592763751745224, -0.03620951250195503, -0.012202865444123745, 0.027759797871112823, 0.009400692768394947, -0.03838007152080536], [0.01356437522917986, -0.024357115849852562, -0.02877005934715271, -0.03410525992512703, 0.021088019013404846, 0.0044079674407839775, 0.02742787078022957, 0.001161716878414154, -0.016348468139767647, 0.008985711261630058, 0.04500996321439743, 0.01672729104757309, 0.044103242456912994, -0.017388543114066124, -0.03531217202544212, -0.002326247049495578, -0.006595442537218332, -0.007237409707158804, 0.009525958448648453, 0.0031966036185622215, -0.006796460598707199, -0.005378181114792824, 0.022782526910305023, 0.023007452487945557, -0.007380205672234297, -0.02547011338174343, -0.029734432697296143, -0.0374075211584568, -0.006369065027683973, 0.006501362193375826, -0.0008365035755559802, 0.00703403539955616], [0.01630622334778309, -0.024940766394138336, -0.027776824310421944, -0.0225246362388134, 0.00865858606994152, -0.010121816769242287, 0.04010314121842384, 0.013116570189595222, 0.008601035922765732, 0.005685910116881132, 0.02418515458703041, 0.023491276428103447, 0.04111228138208389, 0.007419832516461611, 0.05345596745610237, 0.004083165433257818, 0.009185822680592537, 0.011089428327977657, -0.012087156064808369, -0.019497107714414597, -0.011091107502579689, 0.012232762761414051, -0.013142756186425686, 0.03491556644439697, 0.011038657277822495, -0.006866491865366697, 0.004343750886619091, 0.024623766541481018, 0.011665210127830505, 0.007502658758312464, 0.007567472290247679, 0.01496857963502407], [0.015708114951848984, -0.014279870316386223, -0.040561970323324203, -0.009461717680096626, 0.00872841291129589, 0.0017684997292235494, 0.027429338544607162, -0.00036437573726288974, -0.0048475731164216995, 0.011217116378247738, 0.006620439700782299, 0.007460749242454767, -0.014135398901998997, -0.0008903131820261478, 0.007178813684731722, 0.01029303390532732, -0.019035279750823975, 0.011329572647809982, -0.013628458604216576, -0.021816091611981392, -0.01575472205877304, -0.012739553116261959, -0.03147411346435547, -0.02703581191599369, -0.025958720594644547, 0.002849466633051634, 0.003993918187916279, -0.0004968610592186451, 0.009011417627334595, 0.0018062950111925602, 0.019381366670131683, -0.01816762611269951], [0.023870598524808884, -0.02616516873240471, -0.03852536901831627, -0.02735290117561817, 0.002217730972915888, 0.02845611795783043, 0.03459854796528816, 0.0023431945592164993, 0.005454723723232746, 0.04505809023976326, 0.0042297616600990295, -0.008329889737069607, -0.008211103267967701, -0.006404179614037275, 0.016117360442876816, 0.011598946526646614, 0.0063178217969834805, -0.007256361655890942, -0.0020217725541442633, 0.00027907994808629155, -0.01079277042299509, -0.010644015856087208, -0.031660351902246475, -0.02074141800403595, -0.010404243133962154, -0.002392027759924531, -0.011790852062404156, -0.013777256943285465, -0.010644324123859406, -0.013574838638305664, 0.025276506319642067, -0.017045319080352783], [0.010105769149959087, -0.02129398286342621, -0.022862019017338753, -0.02199181169271469, -0.026758411899209023, 0.03192020207643509, 0.043891675770282745, 0.012910192832350731, 0.0075370208360254765, 0.017500346526503563, 0.005312385503202677, 0.0005063239950686693, 0.019112274050712585, -0.022829072549939156, 0.010702508501708508, -0.0016961771761998534, -0.015385331586003304, 0.04148220270872116, -0.01177394762635231, -0.015337408520281315, 0.00016621423128526658, 0.024556688964366913, -0.02242390252649784, 0.00344376964494586, 0.005258134100586176, 0.005334349814802408, 0.011027894914150238, -0.0046542310155928135, 0.027738308534026146, -0.011361700482666492, -0.011984910815954208, -0.04178154096007347], [0.04293936491012573, -0.037237800657749176, -0.018038563430309296, -0.030602769926190376, 0.010035957209765911, 0.02426961250603199, -0.0017233911203220487, -0.008678693324327469, 0.004695184528827667, 0.0012122351909056306, 0.029130730777978897, -0.016355572268366814, 0.023769887164235115, 0.00577273964881897, -0.0060524665750563145, 0.010846130549907684, -0.02347525767982006, -0.013463680632412434, -0.011750927194952965, -0.021432507783174515, 0.0243439469486475, 0.02679108828306198, -0.03783368319272995, 0.032815128564834595, 0.0011019068770110607, 0.004235127475112677, -0.01999141275882721, 0.012504255399107933, -0.009794450365006924, 0.010342314839363098, -0.007538266945630312, -0.025580938905477524], [0.011790948919951916, -0.03943997249007225, -0.010343711823225021, -0.02722802571952343, -0.006347681395709515, 0.011056657880544662, 0.025928784161806107, -0.020096588879823685, 0.015087493695318699, 0.01477429736405611, 0.0007448587566614151, 0.0018628590041771531, 0.009634708985686302, -0.0017247740179300308, 0.02473442628979683, 0.015714876353740692, 0.019009921699762344, 0.021510783582925797, -0.024833887815475464, -0.015447121113538742, 0.018404848873615265, -0.012334996834397316, -0.012635000050067902, 0.010953323915600777, -0.008465633727610111, -0.014770809561014175, 0.0287401732057333, -0.02103799767792225, -0.011859034188091755, 0.0011446223361417651, 0.001070359954610467, -0.01353090163320303], [-0.011240923777222633, -0.011631914414465427, 0.01643010601401329, -0.02273699641227722, 0.008209438063204288, 0.005699094384908676, 0.010475609451532364, -0.0019810094963759184, 0.02391112968325615, -0.004287785850465298, -0.0007068077684380114, 0.01667702943086624, 0.00851418450474739, -0.01152358204126358, 0.03772289678454399, 0.01939087174832821, -0.011033503338694572, 0.004172912798821926, -0.013826223090291023, 0.017175544053316116, 0.00615950021892786, 0.025055231526494026, 0.004321102052927017, 0.012776087038218975, -0.025869816541671753, 0.01623154990375042, 0.030360616743564606, -0.01168767362833023, 0.0020843627862632275, -0.006146558094769716, 0.01984541118144989, -0.0003631931613199413], [0.016799071803689003, -0.017598623409867287, -0.04386105388402939, -0.009706659242510796, -0.010213905945420265, -0.00802892167121172, 0.02135668322443962, -0.011366905644536018, 0.01892450638115406, 0.016309896484017372, 0.011333758942782879, -0.012987538240849972, 0.013027913868427277, -0.00970812514424324, 0.006695132702589035, -0.008359952829778194, -0.001566157559864223, -0.012454617768526077, -0.018071020022034645, -0.014385842718183994, -0.04197756201028824, -0.014349199831485748, -0.021026436239480972, -0.011417181231081486, -0.0026415649335831404, -0.001514343312010169, -0.008997020311653614, 0.006548475939780474, 7.924433157313615e-05, 0.003833681344985962, 0.01726536452770233, -0.02040010876953602], [0.01470884308218956, -0.014139929786324501, -0.03001880832016468, -0.026395466178655624, -0.016502724960446358, 0.0365719348192215, 0.01965639367699623, -0.002030481118708849, 0.0181596577167511, 0.024009471759200096, 0.013951846398413181, -0.009818719699978828, -0.0017951676854863763, -0.004119051620364189, 0.02119099348783493, 0.0049012512899935246, -0.004483170807361603, 0.04014446586370468, -0.017374083399772644, 0.0019522930961102247, -0.010940403677523136, 0.013853785581886768, -0.010580552741885185, 0.004036208149045706, 0.009806150570511818, 0.004175965208560228, 0.021364755928516388, -0.04078381881117821, 0.01515357755124569, 0.004589344374835491, 0.009952045977115631, -0.02612658217549324], [0.015895498916506767, -0.020946277305483818, 0.0005955040105618536, -0.009031507186591625, -0.008581768721342087, 0.010631712153553963, 0.010950056836009026, 0.0075187282636761665, 0.021054651588201523, 0.011804357171058655, 0.0245759766548872, -0.010744323022663593, 0.01326400600373745, -0.012521632947027683, 0.03254781663417816, 0.02837490104138851, -0.0129248583689332, 0.0010245860321447253, -0.01632041670382023, -0.004640324506908655, -0.008493431843817234, 0.01540092658251524, -0.024612145498394966, -0.009399667382240295, -0.015013836324214935, 0.012871090322732925, 0.0070053581148386, -0.005989613477140665, -0.006157091818749905, -0.02276255004107952, 0.03184296563267708, -0.018453607335686684], [0.02671806886792183, -0.02331199124455452, -0.012462898157536983, -0.03722093254327774, -0.014090302400290966, 0.009842637926340103, 0.016730915755033493, -0.006864503957331181, 0.01707376539707184, 0.016713296994566917, 0.022612428292632103, -0.006825186777859926, 0.006414390634745359, -0.02155236527323723, 0.013712948188185692, -0.000597891048528254, -0.002675054594874382, 0.0038430397398769855, -0.010473699308931828, -0.028099240735173225, 0.014049717225134373, 0.012682049535214901, -0.009191406890749931, 0.008698844350874424, 0.01889050006866455, 0.004934684373438358, 0.007587789557874203, -0.01830551028251648, 0.0052187819965183735, 0.015543106012046337, -0.004825168289244175, -0.023126892745494843], [0.02965918742120266, -0.025313332676887512, 0.0036201803013682365, -0.011435084044933319, -0.01612726040184498, 0.008626850321888924, 0.025138594210147858, 0.013414539396762848, 0.02854699082672596, 0.030673524364829063, 0.006312346551567316, 0.003621279262006283, 0.0012802300043404102, -0.01670187897980213, 0.05422034487128258, 0.011657838709652424, 0.012439779005944729, 0.009593975730240345, -0.004919122438877821, -0.003753028577193618, -0.010057666338980198, 0.015751536935567856, -0.04475356265902519, -0.010509947314858437, -0.004925857298076153, 0.012843825854361057, 0.013065382838249207, 0.006489626597613096, 0.007149615325033665, -0.0408218614757061, 0.011210130527615547, -0.03301914036273956], [-0.005523826461285353, -0.009496232494711876, -0.009875076822936535, 0.01756126992404461, 0.0053689307533204556, 0.01280970498919487, 0.03141302242875099, 0.003910636994987726, 0.01252653356641531, -0.0008068028255365789, 0.010071981698274612, -0.020499158650636673, 0.019300855696201324, -0.011611365713179111, 0.0263825710862875, 0.01665685884654522, -0.018488669767975807, 0.0036292211152613163, -0.03730463609099388, -0.014282655902206898, 0.021282626315951347, -0.016080711036920547, -0.009855984710156918, -0.003991622012108564, -0.01832730509340763, 0.006334790959954262, 0.013267800211906433, -0.002663955558091402, -0.001908387173898518, -0.004628886468708515, 0.01687639206647873, -0.01260467991232872], [-0.010803818702697754, -0.015565781854093075, -0.024506380781531334, -0.013792561367154121, -0.006457270588725805, 0.002583080204203725, 0.012997476384043694, -0.027463853359222412, 0.005000232718884945, -0.006570569705218077, 0.008562268689274788, 0.007426034659147263, 0.016413139179348946, 0.007520607206970453, 0.014180782251060009, -0.012042501010000706, 0.014695235528051853, 0.027613045647740364, -0.000706914986949414, 0.008177020587027073, -0.00496197072789073, 0.005839815363287926, 0.022535592317581177, 0.016433004289865494, 0.002321660751476884, -0.022237207740545273, 0.023836521431803703, 0.0075109899044036865, 0.008249882608652115, 0.00591207854449749, 0.003797100158408284, -0.026147454977035522], [0.014827800914645195, -0.00775296101346612, 0.0014527979074046016, -0.017137374728918076, -0.002306706504896283, 0.019221993163228035, -0.006013408303260803, 0.011866400018334389, 0.014933273196220398, 0.026660291478037834, 0.015500237233936787, 0.020530227571725845, -0.0038417864125221968, 0.022870689630508423, 0.04107334837317467, -0.001176286954432726, -0.007406522985547781, 0.03198804333806038, -0.013697798363864422, -0.004223836585879326, -0.0025455092545598745, 0.0035850326530635357, -0.0065144700929522514, 0.032585322856903076, 0.014989429153501987, -0.024396436288952827, -0.010484647937119007, 0.016647499054670334, 0.010613924823701382, 0.01159525103867054, 0.009954174980521202, 0.014959502033889294], [0.005164207424968481, 0.010044963099062443, -0.012383711524307728, -0.03177810087800026, -0.024210073053836823, 0.015189452096819878, 0.044288262724876404, -0.01391750667244196, 0.031027011573314667, 0.04859050735831261, -0.005162818823009729, -0.01136497687548399, -0.003275354392826557, 0.030993811786174774, -0.005405809264630079, -0.0046144830994307995, 0.0022866709623485804, -0.005460958927869797, -0.007455893326550722, -0.011814824305474758, 0.024864038452506065, -0.04410933703184128, 0.008937129750847816, 0.003087969496846199, 0.004853341728448868, 0.00784914381802082, 0.0018873072694987059, 0.009404716081917286, 0.006018603220582008, -0.009300637058913708, 0.017147496342658997, -0.009039845317602158], [0.01633763127028942, -0.008228766731917858, -0.009440851397812366, -0.010164378210902214, 0.013092941604554653, -0.008130902424454689, -0.0017920943209901452, 0.01873849891126156, 0.019812459126114845, 0.015972867608070374, 0.030456554144620895, -0.007951159030199051, -0.00604891637340188, -0.019156256690621376, -0.008048439398407936, -0.011689458042383194, 0.011160487309098244, -0.0043546659871935844, -0.00623453501611948, 0.01062624529004097, 0.00570696359500289, -0.003392853308469057, -0.0034853857941925526, -0.002617540303617716, -0.0032020024955272675, -0.026783915236592293, -0.00916447676718235, -0.01475542038679123, -0.0014381177024915814, -0.03395722806453705, -0.004500022158026695, -0.008200611919164658], [0.01076353807002306, -0.026574747636914253, -0.02477816864848137, 0.014874654822051525, 0.024112651124596596, 0.00503178546205163, -0.012213487178087234, 0.017133070155978203, 0.0015514529077336192, 0.009010662324726582, 0.05039791017770767, -0.0090996278449893, -0.014098741114139557, -0.0031950941774994135, 0.027518274262547493, -0.01958950236439705, 0.005952655803412199, -0.006059056147933006, -0.019747400656342506, 0.0029668575152754784, -0.0027195916045457125, -0.023441903293132782, -0.02208997868001461, -0.013788210228085518, 0.010946719907224178, 0.002779977163299918, 0.01070329174399376, -0.009169953875243664, 0.013004562817513943, -0.033180881291627884, -0.030203161761164665, -0.013506646268069744], [-0.0031747117172926664, -0.012493185698986053, 0.012680926360189915, -0.005227477755397558, -0.001891421270556748, 0.007146815769374371, 0.02695290371775627, 0.021391553804278374, -0.03228205814957619, -2.447918632242363e-06, -0.004591459408402443, -0.004344090353697538, 0.0007584031554870307, -0.013477480970323086, 0.024573003873229027, -0.01229741983115673, -0.02940961718559265, -0.0035161105915904045, -0.015134148299694061, 0.003808890003710985, 0.04893472045660019, -0.042871423065662384, 0.016303224489092827, 0.0073916432447731495, -0.017235148698091507, -0.007330360822379589, -0.01824783720076084, -0.03647765889763832, 0.014598089270293713, -0.03403627872467041, 0.01423685159534216, -0.003633688436821103], [-0.0035391109995543957, 0.015488631092011929, -0.014685893431305885, -0.015659846365451813, 0.009868007153272629, 0.005310974549502134, -0.001139795291237533, -0.014795011840760708, 0.012962881475687027, 0.008671523071825504, -0.008111318573355675, 0.007069753482937813, 0.006100054830312729, -0.007867018692195415, -0.002634973730891943, 0.0009913835674524307, -0.012165062129497528, -0.00642097182571888, -0.005786646623164415, -0.005856008734554052, -0.017494434490799904, -0.03063947707414627, 0.00599568011239171, -0.0071197072975337505, -0.0032336749136447906, -0.015096239745616913, 0.029232991859316826, 0.009832654148340225, -0.006110639777034521, 0.05021102726459503, -0.021960290148854256, 0.005961484741419554], [-0.008265160024166107, -0.015458053909242153, 0.015234822407364845, 0.006947202142328024, -0.01728230156004429, 0.016733823344111443, 0.013466981239616871, 0.009566927328705788, 0.011043058708310127, 0.015137688256800175, -0.003973585553467274, -0.009896884672343731, -0.01894732378423214, 0.005665970500558615, -0.025398455560207367, 0.028378138318657875, -0.019000252708792686, -0.0004339724837336689, -0.0022473763674497604, -0.003812443697825074, 0.013576995581388474, -0.0444474034011364, 0.017026439309120178, 0.012568935751914978, -0.006112045608460903, 0.017048483714461327, -0.018443642184138298, 0.0031200097873806953, -0.00013243115972727537, -0.012315215542912483, -0.0022971443831920624, 0.014953704550862312], [-0.011997866444289684, -0.008966554887592793, -0.008307560347020626, -0.015363631770014763, -0.05986907333135605, 0.01901792548596859, -1.72172312886687e-05, 0.04490895941853523, -0.02617564983665943, 0.01127641275525093, 0.00789439957588911, 0.01589646376669407, -0.022093433886766434, -0.00865587592124939, -0.016908468678593636, 0.02657756209373474, 0.003284079721197486, -0.029678858816623688, 0.03432705998420715, -0.025651076808571815, 0.010287284851074219, -0.015431343577802181, -0.02152167074382305, -0.006058688275516033, -0.003350074402987957, -0.02221722900867462, 0.0207170732319355, 0.004990431945770979, 0.017318036407232285, -0.007055529393255711, -0.006752620451152325, -0.02401609532535076], [0.0026051264721900225, 0.02773197367787361, 0.009349723346531391, 0.027006324380636215, -0.01032223366200924, -0.016125528141856194, -0.011389225721359253, 0.027242116630077362, -0.010561464354395866, -0.02066056802868843, 0.0013876451412215829, -0.007771240081638098, 0.012583618983626366, 0.005417048931121826, -0.011119384318590164, -0.01804739236831665, 0.008129051886498928, 0.0026024954859167337, 0.013823788613080978, 0.036061566323041916, -0.010263163596391678, -0.043106961995363235, 0.014479556120932102, -0.004678482189774513, -0.020216943696141243, 0.005197546910494566, -0.0019657888915389776, 0.023277951404452324, 0.013803440146148205, 0.039616573601961136, -0.028393717482686043, 0.015171222388744354], [0.009208953008055687, 0.012107620015740395, -0.053905755281448364, 0.005753989797085524, 0.03953298553824425, -0.0071236202493309975, 0.006752766668796539, 0.016870077699422836, 0.023759715259075165, 0.0028996446635574102, 0.028459491208195686, -0.007812436204403639, -0.00604383135214448, -0.027937332168221474, 0.020831868052482605, -0.014698673970997334, 0.006479681469500065, -0.011315757408738136, 0.0009278124780394137, -0.008528667502105236, -0.03263935446739197, -0.02600516937673092, -0.02209784835577011, 0.021677860990166664, 0.0031440146267414093, -0.05841045826673508, -0.0014272112166509032, -0.024913214147090912, 0.028018634766340256, -0.02356043830513954, 0.003770679933950305, -0.007852468639612198], [-0.007007853593677282, 0.0010890892008319497, 0.0027948461938649416, -0.018278494477272034, 0.022624142467975616, -0.006663430482149124, -0.021755415946245193, 0.04519680514931679, 0.03237533196806908, 0.022621937096118927, 0.006392702925950289, 0.0034205529373139143, -0.002889149822294712, -0.030447283759713173, -0.016557728871703148, -0.025946788489818573, -0.0413910374045372, -0.0029073709156364202, 0.0016594156622886658, 0.022707054391503334, -0.0250037033110857, -0.030412113294005394, 0.038531649857759476, 0.016967210918664932, 0.0031217136420309544, -0.01301419734954834, 0.008260473608970642, -0.0017571665812283754, -0.05022590979933739, 0.007512098178267479, -0.027344895526766777, 0.011252489872276783], [0.007746364455670118, 0.0050701722502708435, -0.0007175163482315838, 0.010907962918281555, 0.06321964412927628, 0.01522745843976736, -0.010724696330726147, -0.004580720327794552, 0.004976347088813782, -0.016507074236869812, 0.004502757452428341, 0.015576745383441448, 0.013306666165590286, -0.009258785285055637, 0.01328674703836441, 0.003074953332543373, -0.033224184066057205, -0.010472060181200504, 0.008913903497159481, 0.016751067712903023, 0.020573660731315613, 0.005623693577945232, -0.005583814810961485, -0.01587192714214325, -0.038171444088220596, 0.015859363600611687, -0.005835074000060558, 0.018005944788455963, 0.009377519600093365, -0.002833134261891246, 0.012079029344022274, 0.01761256344616413], [0.01630384474992752, 0.029946748167276382, 0.02223457209765911, -0.02823837287724018, -0.032686714082956314, 0.03830144181847572, -0.02747446298599243, 0.02333635278046131, 0.044602181762456894, 0.019224945455789566, 0.003760196967050433, 0.08367182314395905, -0.005577433854341507, -0.02317829057574272, -0.028704548254609108, -0.01215464249253273, 0.030187595635652542, -0.05462424084544182, 0.002020411193370819, 0.021501611918210983, -0.017822353169322014, -0.03548421710729599, -0.05521643906831741, -0.02153528854250908, -0.0063645304180681705, -0.029954059049487114, 0.013650825247168541, 0.009995200671255589, 0.011884285137057304, -0.03131011873483658, 0.018919512629508972, 0.011587756685912609], [-0.025909196585416794, -0.019161494448781013, 0.033220309764146805, -0.002768033416941762, 0.021760212257504463, 0.0327623225748539, -0.03630201891064644, 0.02282922901213169, 0.0346015989780426, 0.051103200763463974, 0.008417810313403606, -0.014042871072888374, -0.006054075434803963, -0.013754122890532017, -0.035151686519384384, -0.02147095464169979, -0.014526540413498878, -0.0320800244808197, -0.031254466623067856, 0.03269418701529503, 0.015192476101219654, -0.0014299373142421246, -0.02582104131579399, 0.008162896148860455, -0.004448395222425461, -0.012537496164441109, 0.008742246776819229, 0.019148964434862137, 0.028403524309396744, 0.006949898786842823, 0.02623973786830902, 0.0015641836216673255], [-0.03773012012243271, 0.032065875828266144, 0.005444523878395557, 0.0119040347635746, 0.02503594197332859, 0.03510328754782677, 0.027156783267855644, -0.012236138805747032, 0.009172676131129265, -0.013162847608327866, -0.0021341226529330015, -0.005597688723355532, 0.017571981996297836, -0.03747504949569702, -0.025676153600215912, 0.01102213654667139, -0.002578727900981903, -0.01126362755894661, 0.013028434477746487, -0.007875737734138966, -0.03300681337714195, -0.044009629637002945, 0.027420146390795708, -0.01827709935605526, 0.0066794962622225285, -0.014500756748020649, -0.014348816126585007, -0.0075018079951405525, -0.03531540185213089, -0.0012591663980856538, 0.00864833127707243, 0.009920389391481876], [-0.0065351189114153385, 0.020275695249438286, -0.0015631368150934577, 0.00011650560918496922, -0.0036613771226257086, -0.0024664734955877066, -0.00287589686922729, -0.01226611528545618, 0.017461160197854042, -0.026171831414103508, 0.019840847700834274, -0.0017592069925740361, -0.005207457579672337, 0.0021384027786552906, -0.009936030954122543, -0.039063286036252975, -0.03843552619218826, -0.027575261890888214, 0.0003396938554942608, -0.0031784148886799812, -0.027091337367892265, 0.032926417887210846, 0.022515729069709778, -0.011707941070199013, -0.0009396417299285531, -0.005516523029655218, 0.019301002845168114, -0.013822534121572971, 0.0177825465798378, -0.025484632700681686, -0.010679160244762897, 0.024990061298012733], [0.014739950187504292, 0.005658197682350874, -0.008824002929031849, -0.03214363381266594, -0.005498185753822327, -0.0023440897930413485, 0.0020537800155580044, -0.00501963309943676, -0.013753687031567097, -0.03328760713338852, 0.0017245060298591852, 0.06936097145080566, 0.004626696463674307, -0.00574706494808197, -0.015549787320196629, 0.01876484602689743, -0.016396908089518547, 0.005738808307796717, -0.0006825440796092153, -0.011258795857429504, -0.037874188274145126, -0.0043840534053742886, -0.005905776750296354, -0.052729278802871704, 0.02502894215285778, 0.017755011096596718, -0.02619110234081745, 0.029582975432276726, -0.02744987979531288, -0.004216679371893406, 0.019280971959233284, -0.01184981781989336], [0.0017235972918570042, -0.003607966471463442, 0.004349317401647568, -0.007743591442704201, -0.03474723920226097, -0.014478842727839947, 0.003282827092334628, 0.03727825731039047, -0.008836068212985992, -0.008237793110311031, 0.01545637845993042, -0.022085601463913918, -0.027396922931075096, 0.01830247789621353, 0.02522234246134758, -0.012263063341379166, -1.9665520085254684e-05, -0.03750579431653023, 0.010449979454278946, -0.015094885602593422, -0.017297163605690002, -0.022577011957764626, 0.019535137340426445, -0.010760152712464333, 0.005753230769187212, 0.0015957439318299294, 0.01623053103685379, -0.013165507465600967, 0.011119874194264412, 0.030985916033387184, 0.019669298082590103, -0.014163844287395477], [-0.007377202156931162, 0.021437926217913628, 0.017500298097729683, 0.03992437198758125, -0.03375909850001335, -0.0018608723767101765, 0.01824699155986309, 0.026058150455355644, 0.014344875700771809, -0.010132387280464172, 0.00820101983845234, -0.02189347706735134, -0.014389069750905037, -0.0047569116577506065, -0.010689807124435902, 0.010683789849281311, 0.017812836915254593, -0.0320713110268116, -0.04155125468969345, 0.012854602187871933, -0.030587172135710716, 0.0029315371066331863, 0.010659509338438511, 0.004556603729724884, -0.0034633572213351727, 0.010674700140953064, 0.004675211850553751, -0.014424207620322704, 0.013504582457244396, 0.01649741642177105, -0.025211477652192116, -0.03652618080377579], [0.027155697345733643, 0.0017284514615312219, 0.018823305144906044, 0.004040725529193878, 0.011577322147786617, -0.0142376022413373, -0.032070357352495193, 0.01435682363808155, -0.00912662222981453, 0.02212609350681305, -0.03965287283062935, -0.011841751635074615, 0.03167417272925377, 0.027198433876037598, -0.024820411577820778, 0.004676935728639364, -0.02798130363225937, 2.2299995180219412e-05, 0.05633513629436493, -0.028145480901002884, -0.020553337410092354, 0.018854010850191116, -0.009965725243091583, 0.03736824914813042, -0.024480201303958893, 0.027853969484567642, -0.019112490117549896, 0.049454301595687866, 0.01987631432712078, -0.017316026613116264, 0.03693261370062828, 0.04090689867734909], [-0.003269498236477375, 0.03504638746380806, -0.004852575249969959, 0.019921882078051567, -0.023143764585256577, 0.008079567924141884, 0.008824852295219898, -0.02024836093187332, -0.007054454647004604, -0.03001999482512474, -0.006857236847281456, 0.027457475662231445, 0.019496919587254524, -0.00879986584186554, -0.0525045283138752, -0.03655317798256874, 0.006024079862982035, -0.025661399587988853, 0.026854775846004486, 0.008521899580955505, 0.011550495401024818, -0.016665704548358917, -0.007692116778343916, -0.012734710238873959, 0.04097092151641846, -0.0016356169944629073, -0.00451895035803318, 0.014216768555343151, -0.0041334680281579494, 0.01139011513441801, 0.006309434771537781, 0.007298916578292847], [0.005487613379955292, -0.007721303030848503, 0.03905549645423889, 0.018588025122880936, 0.026408731937408447, -0.038759101182222366, -0.004062894266098738, 0.03772576525807381, 0.01690691150724888, 0.04137903079390526, -0.013172227889299393, -0.03870224952697754, -0.005182049237191677, 0.022563079372048378, -0.02055240049958229, 0.011801627464592457, 0.017804425209760666, 0.03678491339087486, 0.00369532429613173, 0.015725038945674896, 0.015782762318849564, -0.028933420777320862, 0.016004934906959534, -0.03309967741370201, -0.025272853672504425, 0.04558951407670975, 0.004841656889766455, 0.027558419853448868, 0.019220957532525063, 0.012814387679100037, -0.04535534232854843, -0.014798984862864017], [0.015489584766328335, -0.00427363533526659, -0.008009286597371101, -0.026865003630518913, -0.027918625622987747, -0.026983067393302917, 0.018032042309641838, 0.02738824114203453, -0.005039074923843145, -0.02330353856086731, 0.001733935670927167, -0.0011875653872266412, -0.02707904390990734, 0.01828058995306492, 0.0045091137290000916, 0.032676663249731064, 0.007605853956192732, 0.034310705959796906, -0.004532884806394577, -0.0177267137914896, 0.013543372042477131, -0.030239401385188103, -0.017734795808792114, 0.013736036606132984, 0.016864847391843796, -0.01907971315085888, 0.0003289953456260264, -0.005510216113179922, -0.005153115838766098, 0.07623763382434845, 0.0074437279254198074, 0.001686850911937654], [0.008056309074163437, -0.006120192818343639, 0.010016422718763351, 0.018296556547284126, 0.005676653236150742, 0.023229792714118958, -0.0009721704409457743, -0.007615959737449884, -0.019435884431004524, -0.0010073808953166008, -0.001296886126510799, 0.06007310003042221, 0.002223135204985738, -0.03934550657868385, -0.006735310424119234, -0.015345401130616665, 0.01802845485508442, -0.009739636443555355, -0.028058648109436035, -0.012417127378284931, 0.034960195422172546, 0.018677396699786186, -0.019009297713637352, 0.008412450551986694, -0.0071184574626386166, 0.014073607511818409, -0.003386466531082988, 0.00504461070522666, 0.021992158144712448, -0.008309933356940746, -0.02268967032432556, 0.017439257353544235], [0.012599661014974117, 0.02899651974439621, -0.0058522610925138, -0.014629736542701721, 0.03095589578151703, -0.0035828601103276014, 0.017520064488053322, -0.015148064121603966, -0.004116008058190346, 0.023994259536266327, -0.01131052989512682, 0.0095921466127038, 0.0014224009355530143, -0.0013842706102877855, -0.003938625566661358, -0.011201916262507439, 0.008114330470561981, 0.024184707552194595, 0.01136986818164587, 0.021076750010252, 0.01949211396276951, -0.022936496883630753, 0.009462092071771622, 0.004191799089312553, -0.003063339041545987, -0.014081657864153385, -0.01432852353900671, 0.029371632263064384, -0.01798052154481411, -0.010685419663786888, 0.0044177924282848835, 0.0006302257534116507], [0.0014724351931363344, -0.00361877353861928, 0.005624045617878437, 0.01813555136322975, 0.009817291051149368, 0.032807834446430206, -0.008531920611858368, -0.024629265069961548, 0.031735677272081375, 0.024246426299214363, -0.01261791493743658, 0.011632384732365608, -0.014297337271273136, -0.011780528351664543, 0.025133412331342697, 0.018343981355428696, 0.017939096316695213, -0.0360102578997612, -0.009993929415941238, 0.04877221956849098, 0.006300416309386492, -0.00029525294667109847, -0.0046507976949214935, -0.02948176860809326, 0.034677982330322266, 0.008404457941651344, -0.006952820811420679, 0.0441262386739254, 0.001110087032429874, 0.03554615005850792, -0.03486325219273567, 0.01333559025079012], [0.006443849299103022, 0.00201030564494431, 0.013136191293597221, -0.0070934719406068325, 0.029198670759797096, -0.011276871897280216, 0.015269399620592594, 0.024664491415023804, 0.010491282679140568, -0.0075812735594809055, -0.003595522604882717, 0.04258403554558754, 0.003149209311231971, 0.0019282983848825097, -0.0025864075869321823, -0.009961454197764397, -0.00540965935215354, -0.012277405709028244, 0.012415637262165546, -0.014560971409082413, -0.041003480553627014, 0.017776580527424812, -0.02816888317465782, -0.03809342905879021, 0.018157223239541054, -0.019011646509170532, -0.023563848808407784, 0.002004631096497178, -0.0022350901272147894, -0.016497939825057983, -0.01904292218387127, -0.02364742010831833], [0.004421096295118332, -0.013324104249477386, -0.026969730854034424, -0.005345508456230164, -0.0368056520819664, 0.03378964588046074, -0.01529201865196228, -0.005410539917647839, -0.010962489061057568, 0.012515857815742493, -0.021536581218242645, -0.0005546839092858136, -0.02177601307630539, -0.018488679081201553, -0.0040162065997719765, 0.006902644876390696, 0.005941438488662243, -0.0005482474807649851, 0.05006774142384529, -0.040144652128219604, -0.036798108369112015, -0.010096073150634766, -0.04023844376206398, -0.017272058874368668, -0.0051618474535644054, 0.019123997539281845, -0.009751517325639725, 0.012268620543181896, 0.008545980788767338, 0.06221797317266464, 0.01124359481036663, 0.022720908746123314], [-0.01345295924693346, 0.03323652967810631, -0.02090335823595524, 0.011690560728311539, 0.020802931860089302, -0.022970987483859062, -0.011481139808893204, -0.03510988503694534, 0.022754844278097153, -0.008047482930123806, 0.016906430944800377, -0.026749387383461, -0.017614716663956642, -0.00968984141945839, -0.002098182449117303, 0.0186606477946043, -0.012906357645988464, 0.009985977783799171, 0.004276177380234003, 0.009558603167533875, 0.03892034664750099, -0.019973816350102425, 0.0049011907540261745, 0.018144086003303528, -0.006492398679256439, 0.0032101457472890615, 0.009341796860098839, 0.0021517674904316664, 0.011657733470201492, 0.003943981137126684, 0.043090373277664185, 0.003230365691706538], [-0.014642862603068352, -0.018068630248308182, 0.009796718135476112, 0.0075508709996938705, 0.04964945465326309, 0.028005484491586685, -0.033959146589040756, -0.01928429678082466, -0.025875145569443703, -0.03840680420398712, -0.004035786725580692, 0.012945076450705528, 0.05174488201737404, 0.02036689594388008, -0.025438208132982254, 0.016431940719485283, 0.022803490981459618, 0.005450727883726358, -0.02353258803486824, 0.028777552768588066, -0.01149479579180479, -0.0012916469713672996, 0.01797194592654705, -0.021774044260382652, -0.025447458028793335, 0.008738614618778229, -0.032088737934827805, 0.008880381472408772, -0.00489085353910923, 0.0017072639893740416, 0.006799928843975067, 0.001423989306204021], [0.011104241013526917, -0.014009361155331135, 0.018713532015681267, 0.010136041790246964, -0.014608397148549557, -0.00022025172074791044, -0.0023466371931135654, -0.009264222346246243, 0.00036605034256353974, 0.014000040479004383, -0.028066985309123993, 0.0024838047102093697, -0.02111208252608776, -0.00125302211381495, 0.010541745461523533, -0.01929379068315029, -0.0064797052182257175, 0.00118355976883322, -0.021917030215263367, 0.024551505222916603, -0.01244415994733572, -0.014056393876671791, -0.01958734728395939, -0.006359311286360025, -0.028288085013628006, -0.011056269519031048, 0.03275119140744209, -0.011196141131222248, 0.004542432725429535, -0.003827056149020791, 0.004385339096188545, -0.02345518209040165], [0.022755414247512817, -0.003998409956693649, 0.0062509397976100445, 0.012101922184228897, -0.005638941656798124, 0.0233856663107872, -0.01529200654476881, 0.0247596874833107, 0.0007031114655546844, 0.009302784688770771, 0.020345212891697884, -0.008616041392087936, -0.006989690475165844, 0.01585751585662365, 0.00816649105399847, -0.045372623950242996, 0.014596926979720592, 0.005074290093034506, 0.020170262083411217, -0.0032162899151444435, -0.0033903312869369984, 0.002932425355538726, 0.01230693981051445, -0.0018751629395410419, 0.012803918682038784, -0.015750182792544365, -0.006012581288814545, -0.028446603566408157, 0.020372599363327026, -0.03134724125266075, -0.03353835642337799, -0.011594411917030811], [0.014002309180796146, 0.01077013649046421, 0.029664531350135803, -0.020266901701688766, 0.014112146571278572, 0.028119748458266258, -0.010098201222717762, -0.03567074239253998, -0.0014759377809241414, -0.01678244024515152, -0.011116866953670979, 0.02949557639658451, 0.013924249447882175, 0.020796461030840874, 0.019003422930836678, 0.007353737484663725, -0.0161649901419878, -0.005411656107753515, 0.043925922363996506, 0.0018128332449123263, 0.006885528564453125, -0.013259469531476498, -0.008726251311600208, -0.020782936364412308, 0.03026147186756134, -0.020565589889883995, 0.022357383742928505, 0.030452240258455276, 0.009150990284979343, -0.028295688331127167, -0.007483232766389847, 0.0007316892151720822], [-0.003880957141518593, -0.04217077046632767, 0.028659243136644363, -0.005482807289808989, 0.01121595874428749, 0.052800312638282776, 0.0012336678337305784, 0.009613338857889175, -0.009794261306524277, -0.018950045108795166, 0.022154763340950012, -0.011975782923400402, -0.002940521575510502, 0.004164888523519039, -0.014198709279298782, -0.01102513074874878, -0.00805844459682703, -0.005481624510139227, 0.01796766370534897, 0.015193702653050423, -0.007391167338937521, 0.023616259917616844, -0.009831683710217476, 0.018068434670567513, -0.02494843490421772, 0.01409210916608572, -0.042974576354026794, -0.0011360968928784132, -0.011050483211874962, 0.026683056727051735, -0.008704613894224167, 0.006800384726375341], [0.015919828787446022, 0.008529490791261196, -0.001543132122606039, -0.00506592309102416, 0.0023431763984262943, 0.017354968935251236, 0.014191298745572567, -0.010377733036875725, 0.007203054614365101, -0.018519075587391853, -0.004980531986802816, 0.003642416326329112, 0.002813666360452771, -0.014813545159995556, 0.0011346479877829552, -0.01655392348766327, -0.014273297041654587, 0.03563764691352844, 0.019174326211214066, 0.02881607599556446, -0.00048754620365798473, 0.018975121900439262, 0.005217995028942823, -0.006800627335906029, -0.011470112949609756, 0.018133867532014847, -0.021625453606247902, -0.00521466601639986, 0.03209059685468674, 0.013617333956062794, 0.012594149447977543, -0.0028991634026169777], [-0.0033322167582809925, -0.01309115532785654, 0.01502241101115942, -0.00550066726282239, 0.013685245998203754, -0.031483519822359085, -0.002753250766545534, -0.03625856712460518, 0.012834379449486732, -0.028877146542072296, 0.0023395793978124857, 0.011215253733098507, -0.0127132348716259, 0.018887268379330635, 0.0409737154841423, -0.019005896523594856, 0.03959936276078224, 0.024562399834394455, -0.032185930758714676, 0.012986194342374802, -0.037463072687387466, -0.002544651972129941, 0.02266518771648407, -0.0010615830542519689, -0.016489649191498756, 0.009982863441109657, -0.02448244020342827, 0.020831488072872162, -0.03840205818414688, -0.003066375618800521, -0.012704403139650822, 0.01740335114300251], [-0.028529446572065353, -0.020883992314338684, 0.015569346025586128, 0.0012459632707759738, -0.005871612578630447, 0.015378796495497227, -0.006650133989751339, 0.0013060824712738395, -0.002887260401621461, 0.018048232421278954, -0.002634294331073761, -0.01547019649296999, 0.015154928900301456, 0.006713040638715029, 0.004487079102545977, -0.026052791625261307, -0.01425103098154068, 0.009547729976475239, -0.027624649927020073, 0.009557070210576057, -0.03419537469744682, -0.0007021457422524691, -0.011922832578420639, 0.0022648335434496403, 0.006254849024116993, -0.0032737511210143566, 0.006097619421780109, 0.013947883620858192, 0.02202722057700157, 0.021706022322177887, -0.02864704839885235, -0.025919102132320404], [0.014397465623915195, 0.010876145213842392, -0.0399010106921196, -0.001053051557391882, 0.015388375148177147, 0.027798080816864967, -0.009558489546179771, 0.030991433188319206, -0.022817643359303474, -0.02745530754327774, 0.012346208095550537, 0.012727388180792332, -0.04457791894674301, 0.009551511146128178, -0.029250266030430794, 0.02106253243982792, 0.0226896945387125, 0.024974867701530457, 0.013592363335192204, -0.007396665867418051, 0.017614686861634254, -0.03214242681860924, -0.009624450467526913, 2.3520786271546967e-05, -0.014719409868121147, -0.0061295912601053715, 0.009695064276456833, 0.035797398537397385, -0.008150581270456314, -0.030172230675816536, 0.022624092176556587, -0.007200486958026886], [0.007927755825221539, 0.022764189168810844, 0.0004962428356520832, -0.01638108864426613, -0.02932756394147873, 0.02942684292793274, 0.0011516909580677748, 0.018877701833844185, 0.009121773764491081, -0.04952865466475487, -0.009918048046529293, -0.005914587527513504, -0.0044481209479272366, -0.028234368190169334, -0.02638014778494835, 0.02204199880361557, 0.01215747557580471, -0.007709858939051628, 0.0008392578456550837, -0.014658813364803791, 0.008257866837084293, -0.012168042361736298, 0.027574200183153152, -0.013729757629334927, 0.03606431931257248, -0.041010528802871704, 0.018019508570432663, 0.005035717505961657, -0.03064856491982937, 0.002946295542642474, -0.010608009062707424, -0.006353854201734066], [-0.025814587250351906, 0.03753400593996048, 0.03153136372566223, 0.03413773328065872, -0.00766585860401392, -0.021285424008965492, -0.008345420472323895, 0.003852143883705139, -0.0027655712328851223, -0.018703071400523186, -0.021036013960838318, -0.07077331095933914, 0.018449807539582253, -0.03434933349490166, -0.0045427377335727215, -0.00250451173633337, -0.04656292125582695, -0.0043065850622951984, -0.003237022552639246, -0.027597948908805847, -0.0029631825163960457, -0.01329105906188488, -0.01924118585884571, -0.009471738710999489, 0.00363852153532207, 0.0031303735449910164, 0.012349019758403301, -0.017298603430390358, 0.008216354995965958, -0.003040311159566045, 0.029651900753378868, -0.010662803426384926], [0.008115256205201149, -0.0014602338196709752, 0.02600739523768425, -0.0012856529792770743, 0.006382919382303953, 0.006377414334565401, 0.003992139827460051, -0.012860924005508423, 0.003014369634911418, 0.02008829265832901, 0.02837010845541954, -0.02380279079079628, -0.04234740883111954, 0.005973181687295437, 0.004759997129440308, -0.0171830877661705, 0.02709300071001053, 0.010232548229396343, -0.0017701624892652035, -0.011597023345530033, -0.005577028729021549, -0.005642669275403023, -0.015355544164776802, -0.04297969117760658, -0.02361372299492359, 0.010012646205723286, 0.0015133549459278584, -0.01338251680135727, -0.05280120298266411, 0.010826373472809792, -0.014243056066334248, 0.02124672941863537], [0.022204548120498657, 0.028429346159100533, 0.016591889783740044, 0.011870868504047394, 0.0023866486735641956, -0.016060227528214455, -0.020286578685045242, -0.013746938668191433, -0.019596436992287636, -0.013813844881951809, 0.023560985922813416, 0.02641470544040203, 0.039298899471759796, 0.012128809466958046, -0.008230338804423809, -0.028028732165694237, 0.05509769171476364, 0.0012828147737309337, 0.025924142450094223, -0.016964348033070564, -0.011461785063147545, 0.010332167148590088, 0.0008542730938643217, -0.04498656094074249, 0.04721295088529587, -0.040388401597738266, -0.012556363828480244, 0.011735936626791954, -0.018682168796658516, -0.009331217966973782, -0.004490392282605171, -0.013594921678304672], [-0.019200623035430908, 0.0008883218979462981, 0.019047826528549194, 0.007107392884790897, 0.014023863710463047, 0.032584480941295624, -0.03196403756737709, -0.03281213343143463, 0.011345955543220043, -0.01019749604165554, -0.022350262850522995, -0.01650998182594776, 0.027527017518877983, -0.03175993636250496, 0.013628682121634483, -0.014481781050562859, -0.0352596677839756, -0.0036466496530920267, -0.008541982620954514, -0.010353933088481426, 0.018838776275515556, -0.010108905844390392, 0.01874842867255211, 0.007523668464273214, 0.06295043975114822, 0.04873155802488327, -0.02115212194621563, -0.010554440319538116, 0.009614409878849983, -0.00013443907664623111, -0.01810246706008911, -0.010677669197320938], [0.009605404920876026, 0.013345896266400814, -0.04712133854627609, 0.02399916760623455, 0.007287431042641401, 0.023264948278665543, 0.0256317388266325, -0.027633139863610268, 0.01644948497414589, 0.01236630231142044, -0.007465540897101164, 0.013307548128068447, 0.025182433426380157, 0.02512441761791706, -0.0031215569470077753, 0.04449368268251419, 0.011866367422044277, -0.014903631992638111, 0.0016057250322774053, -0.01187900546938181, -0.0007293092785403132, -0.011391115374863148, 0.013032490387558937, -0.009546266868710518, -0.04781069606542587, -0.014756781049072742, 0.008827276527881622, -0.01207736786454916, -0.005162832327187061, 0.013103676959872246, 0.0032660041470080614, 0.008994566276669502], [0.0040247393772006035, -0.0059120748192071915, -0.01436725165694952, 0.030573951080441475, 0.004722257144749165, -0.007155674044042826, -0.017227938398718834, 0.007614306639879942, 0.002011577831581235, -0.01719502918422222, 0.010253393091261387, 0.0039279647171497345, -0.02107454463839531, 0.027937734499573708, -0.008501164615154266, 0.01576036773622036, -0.00462666479870677, -0.007473204284906387, -0.015058250166475773, -0.022945469245314598, -0.02811392955482006, 0.0004010937118437141, 0.03973986580967903, 0.001334939617663622, -0.017735155299305916, 0.010878532193601131, 0.01079158578068018, 0.0013853549025952816, 0.01849197968840599, 0.003959904424846172, -0.03551027178764343, -0.028962934389710426], [0.02531573735177517, 0.03240848332643509, -0.010480492375791073, -0.02581261843442917, 0.009232436306774616, -0.03792034834623337, 0.02828196808695793, 0.03726107254624367, -0.008002684451639652, -0.00012410074123181403, 0.038319118320941925, -0.029619421809911728, -0.038968730717897415, -0.009978455491364002, -0.051066912710666656, -0.010327860713005066, 0.014320875518023968, -0.04337741434574127, -0.07730323821306229, 0.06430435180664062, 0.006794835906475782, 0.020594783127307892, -0.0630030706524849, -0.004164854064583778, 0.022425007075071335, -0.012178723700344563, 0.005379335954785347, 0.016324983909726143, 0.029001930728554726, 0.016317501664161682, -0.008711234666407108, -0.0452999584376812], [-0.041975803673267365, 0.003930641338229179, -0.012846801429986954, -0.015036096796393394, -0.00048005979624576867, 0.01741347275674343, -0.038069579750299454, 0.03892887383699417, 0.021020730957388878, -0.0016408968949690461, -0.018562108278274536, 0.018122706562280655, -0.026544608175754547, 0.01512982603162527, 0.002132161520421505, 0.006882756948471069, -0.01715126447379589, -0.0073036872781813145, -0.02874782681465149, -0.018464522436261177, 0.013933327980339527, 0.0035057885106652975, -0.04607880488038063, -0.018916446715593338, -0.009789342060685158, -0.005515830125659704, 0.016374772414565086, 0.04897989705204964, -0.06384196132421494, 0.014629397541284561, -0.013929448090493679, 0.009148801676928997], [0.022721970453858376, -0.005142927169799805, -0.01983693055808544, 0.01661614142358303, -0.02421983890235424, -0.020297016948461533, 0.014967875555157661, 0.047785717993974686, -0.03626723960042, -0.02470928244292736, -0.0028418160509318113, 0.019812755286693573, 0.0038708688225597143, 0.007609880995005369, 0.02342609502375126, 0.0050843339413404465, 0.03811117261648178, 0.016119079664349556, -0.019631724804639816, -0.02756025828421116, 0.028575196862220764, 0.010196558199822903, -0.028920138254761696, 0.0028481436893343925, -0.004743603523820639, -0.0003868554485961795, -0.020979776978492737, -0.029233301058411598, -0.022004462778568268, 0.02759554423391819, 0.0013240341795608401, -0.0037975639570504427], [-0.01445976085960865, 0.003465792164206505, -0.023147260770201683, 0.01530378870666027, 0.016713928431272507, -0.0385708324611187, -0.0013312188675627112, -0.006111735478043556, 0.0006349827744998038, 0.008395450189709663, -0.03852806240320206, -0.02078288421034813, 0.01065441220998764, 0.00890308991074562, 0.025912903249263763, 0.04703135043382645, 0.023854263126850128, -0.022438980638980865, -0.016198037192225456, -0.004584568087011576, 0.016780665144324303, 0.031058277934789658, 0.05057431384921074, -0.01722462847828865, -0.015852797776460648, -0.003700677305459976, 0.011633528396487236, 0.008503230288624763, -0.027067914605140686, -0.032369572669267654, 0.015922371298074722, -0.007691882085055113], [0.013572147116065025, -0.00434187101200223, -0.004977934993803501, -0.012835782952606678, 0.013945143669843674, 0.012719577178359032, 0.005770148243755102, 0.02550598792731762, 0.0026956198271363974, -0.019693082198500633, 0.03870493546128273, 0.010171832516789436, 0.006822691764682531, 0.03180564567446709, 0.017568614333868027, 0.02353232353925705, 0.02048608288168907, 0.0033407071605324745, -0.018512634560465813, -0.029339822009205818, -0.02588725835084915, -0.03318489342927933, -0.016248228028416634, 0.023549489676952362, -0.00868522934615612, 0.032451022416353226, 0.0007518936181440949, 0.022591467946767807, 0.020529091358184814, 0.005274338647723198, -0.028033174574375153, 0.04090310260653496], [-0.002446207217872143, 0.01762363687157631, -0.01986580342054367, 0.023403165861964226, 0.011686532758176327, -0.01833595335483551, -0.014295722357928753, -0.02152964472770691, 0.026918064802885056, -0.023798733949661255, -0.020794205367565155, -0.012948103249073029, 0.020832734182476997, -0.0251616220921278, 0.013077354989945889, -0.025911858305335045, 0.008172547444701195, 0.043595846742391586, 0.01812724769115448, 0.013989551924169064, -0.007025458384305239, 0.00717889703810215, -0.004628869704902172, 0.026187529787421227, -0.005392333492636681, 0.028813185170292854, 0.023290278390049934, -0.002424860605970025, -0.01726601831614971, 0.03582056239247322, -0.02247694320976734, -0.02361709251999855], [-0.005320427473634481, -0.003059358336031437, 0.01635359600186348, 0.004333104472607374, -0.005672861356288195, -0.006957662291824818, 0.004239823203533888, 0.008625667542219162, 0.013466709293425083, -0.015180700458586216, -0.015534031204879284, -0.00584597559645772, 0.011219489388167858, -0.02159777283668518, -0.006120265461504459, -0.0016187728615477681, 0.009779813699424267, 0.007422012276947498, 0.010092750191688538, -0.006732037290930748, -0.007864964194595814, -0.02142643742263317, -0.010278226807713509, 0.04318170249462128, -0.021492067724466324, -0.0036940365098416805, -0.005888488609343767, 0.011620648205280304, -0.014630665071308613, -0.018835511058568954, -0.03783409669995308, -0.017105745151638985], [-0.02978435717523098, 0.018513355404138565, 0.009216487407684326, 0.016044549643993378, 0.004874256439507008, 0.021409008651971817, -0.007911640219390392, -0.010231509804725647, -0.003645463613793254, 0.009041257202625275, -0.02372729405760765, 0.03637667000293732, 0.012388495728373528, -0.013592882081866264, -0.020018815994262695, -0.019538018852472305, -0.026751795783638954, -0.011680226773023605, -0.006024566944688559, 0.005253422074019909, 0.0049703167751431465, 0.0029154049698263407, -0.017014173790812492, -0.010794129222631454, -0.02106284536421299, -0.00032507142168469727, -0.02169518731534481, -0.007977979257702827, 0.008050413802266121, -0.015199207700788975, -0.007335792761296034, -0.006294851191341877], [0.0006524107302539051, -0.03243209794163704, 0.02012612111866474, 0.008584660477936268, 0.02164137177169323, 0.025438018143177032, 0.0285183098167181, -0.007178116589784622, 0.021915992721915245, 0.017718015238642693, -0.020596472546458244, 